
\data\
ngram 1=508
ngram 2=2817
ngram 3=356

\1-grams:
-0.9584314	</s>
-99	<s>	-0.1326922
-3.76602	<unk>
-0.8938102	UNK	-0.003023505
-1.959786	a	-0.001530528
-3.163906	abathur	0.04817708
-2.368026	about	0.1693037
-2.987815	admiral	0.116493
-2.987815	after	0.1346682
-2.862876	again	0.05517534
-3.066996	against	0.01094606
-3.288845	age	0.05420412
-3.288845	ah	0.008650688
-2.686785	aint	0.05636206
-3.288845	alien	0.05616366
-3.066996	alive	0.05011274
-2.197765	all	0.1534382
-3.464936	alli	-0.0009681366
-3.288845	allow	0.01180027
-3.163906	almost	-0.001176185
-2.987815	already	0.1114507
-2.765966	always	0.0421473
-2.404239	am	0.1489954
-3.288845	amon	-0.002233696
-3.288845	among	0.01218593
-3.288845	amons	0.05676671
-2.724574	an	0.0497326
-2.920868	ancient	0.112072
-1.873872	and	0.07287261
-3.066996	another	0.05565392
-3.066996	any	0.05385595
-3.288845	anyone	0.04806447
-3.163906	anything	0.04700036
-2.765966	arcturus	0.108285
-2.303568	are	0.1226114
-3.288845	armada	0.0537793
-3.288845	armor	0.05873296
-3.066996	around	0.06494721
-3.066996	artanis	0.04698982
-2.510694	as	0.08137523
-3.163906	ashes	0.002322006
-3.288845	aside	0.008956961
-2.765966	at	0.008620204
-3.288845	attack	0.04745635
-3.288845	awaiting	0.000988032
-2.765966	away	0.1175702
-2.724574	back	0.06107258
-3.288845	battle	0.004233839
-2.234488	be	0.05899223
-2.920868	because	0.02119345
-3.163906	become	0.04742025
-2.510694	been	0.1026512
-2.862876	before	0.02034769
-3.288845	being	0.06140395
-3.163906	believe	0.004342822
-3.464936	betray	0.001574666
-3.288845	betrayed	-0.001262204
-3.288845	beyond	0.0604543
-3.464936	billion	-0.001191788
-3.288845	billions	0.05420412
-3.163906	biomass	0.06956843
-2.987815	bitch	0.1115484
-2.920868	blades	0.05037971
-3.163906	blood	0.05308633
-3.464936	bout	-0.000445834
-3.066996	boys	0.1262047
-3.288845	breakfast	0.0537793
-3.288845	bring	0.001514769
-3.288845	buddy	0.04806447
-3.066996	burn	0.06266974
-2.260816	but	0.108248
-2.619838	by	0.09264931
-3.288845	call	0.008344632
-3.066996	called	0.01286864
-3.288845	calling	0.01102997
-3.163906	came	0.004875744
-2.561846	can	0.07237697
-2.920868	cant	0.05215218
-3.288845	care	-0.002308336
-3.163906	carry	0.001612353
-3.288845	catch	0.003779477
-3.288845	cause	0.009953842
-3.066996	chance	0.05806387
-3.066996	char	0.04636136
-3.288845	choices	0.05967885
-3.288845	chrysalis	0.007733166
-3.288845	clear	0.004688678
-3.288845	close	0.008497633
-3.288845	cluster	0.0537793
-3.288845	collect	0.002721144
-2.686785	come	0.1276897
-2.987815	coming	0.05972895
-3.464936	comm	0.05762078
-2.987815	commander	0.04588854
-3.464936	confederate	0.05762078
-3.288845	confederates	-0.001598439
-3.163906	control	0.005127585
-2.920868	could	0.04685891
-3.288845	count	-0.000253411
-3.288845	course	0.04806447
-2.987815	damn	0.05317084
-3.288845	dangerous	0.04787502
-3.163906	darlin	0.04721208
-3.288845	day	0.000988032
-2.765966	dead	0.1180343
-3.066996	deal	0.04709442
-3.163906	defend	0.01119066
-3.288845	dehaka	0.04806447
-2.862876	destroy	0.0120405
-3.163906	destroyed	0.05257589
-3.288845	devil	-0.00197132
-3.163906	did	0.01080589
-3.066996	die	0.1181354
-3.288845	died	-0.002308336
-3.288845	dies	0.04806447
-3.288845	difficult	0.01102997
-3.163906	directorate	0.04693886
-2.368026	do	0.1400911
-3.288845	doing	0.04871359
-2.487213	dominion	0.126529
-2.686785	done	0.1420806
-2.350993	dont	0.07011318
-2.811724	down	0.146201
-3.288845	dream	0.05420412
-3.288845	dreamed	0.01723096
-3.163906	duke	0.05274597
-3.163906	duran	0.04721208
-3.163906	each	-0.003121789
-3.163906	earth	0.04668766
-3.288845	edmund	-0.002269395
-3.464936	em	-0.0009681366
-3.288845	emitter	0.0001209492
-3.066996	emperor	-0.004164703
-3.163906	end	0.004571138
-3.288845	enemies	0.1144729
-2.987815	enough	0.05411904
-3.464936	er	0.01251236
-3.464936	era	0.004509863
-3.288845	escape	0.04806447
-3.288845	essence	0.05183045
-2.920868	even	-0.003678835
-2.811724	ever	0.05260783
-3.066996	every	0.05471679
-3.288845	everyone	-0.00111255
-3.066996	everything	0.06406984
-3.288845	expected	0.01172318
-3.288845	fair	0.04770751
-3.163906	far	-0.00275094
-3.464936	fast	-0.0003711685
-2.920868	father	0.06193537
-3.163906	fear	0.06473263
-3.464936	fed	0.001574666
-3.163906	feel	0.01497159
-3.288845	feels	0.04854575
-3.066996	fenix	0.05207618
-3.288845	fight	0.06365688
-3.288845	figure	0.004158079
-3.163906	find	0.05155682
-3.288845	findlay	0.04806447
-3.163906	fire	0.06176993
-2.811724	first	0.1122995
-3.163906	fleet	0.05436504
-2.174902	for	0.1645942
-3.163906	forces	0.06948002
-3.288845	forget	0.004158079
-3.464936	free	0.04891855
-3.288845	freedom	0.04779126
-3.288845	friend	0.05650536
-2.589875	from	0.06905643
-2.652023	general	0.07039195
-2.686785	get	0.02127986
-2.920868	give	0.008299383
-2.920868	go	0.04888369
-3.288845	god	0.001740709
-3.288845	goin	0.01003062
-2.811724	going	0.06365473
-2.920868	gonna	0.05214485
-2.619838	good	0.1170698
-2.589875	got	0.06939023
-3.288845	great	0.007885951
-3.163906	greater	0.1136205
-3.066996	ground	0.1147734
-3.288845	guess	0.01149199
-2.862876	had	0.07161383
-3.464936	hand	0.003077417
-3.288845	hands	0.04787502
-3.464936	hard	0.00937
-3.163906	hardly	0.05539667
-3.288845	harvest	0.06019566
-2.920868	has	0.009616955
-3.163906	hate	0.01357039
-3.288845	hatred	0.1144729
-2.209664	have	0.09077353
-3.288845	having	0.05659083
-2.487213	he	0.04791791
-2.862876	hear	0.0285726
-2.987815	heard	0.01436103
-3.288845	held	0.002223347
-2.765966	hell	0.04951165
-3.288845	hello	-0.002084377
-2.920868	help	0.06397022
-3.288845	her	0.04804261
-2.288845	here	0.1230091
-3.066996	hes	-0.001459745
-3.288845	high	0.05633448
-2.765966	him	0.05253725
-2.765966	his	0.05047678
-3.163906	hive	-0.003906428
-2.686785	how	0.06632991
-3.464936	human	0.05762078
-3.163906	humanity	0.04721208
-1.607604	i	0.01375088
-3.464936	ice	0.04891855
-3.163906	id	-0.001176185
-2.652023	if	0.02915412
-3.464936	iff	0.05762078
-2.862876	ill	0.05188759
-2.535517	im	0.04529
-2.209664	in	0.063703
-3.288845	incredibly	-0.002681345
-3.288845	individuals	0.008650688
-2.765966	into	0.08018887
-2.025604	is	0.04385634
-2.142717	it	0.1272219
-2.464936	its	0.05346879
-3.464936	iv	0.002400535
-2.535517	ive	0.04485112
-3.163906	izsha	0.05097806
-2.368026	jim	0.1064546
-2.862876	jimmy	0.1126493
-3.066996	job	0.05840979
-3.288845	jukebox	0.0537793
-3.288845	jump	0.04972202
-2.487213	just	0.07030119
-3.288845	keep	0.001364207
-2.619838	kerrigan	0.124651
-2.686785	kill	0.02274022
-3.066996	killed	0.05103269
-3.464936	killer	0.04891855
-3.288845	killers	0.04806447
-3.288845	knew	0.06837372
-2.404239	know	0.0767509
-2.920868	korhal	0.0537818
-2.987815	last	0.0121692
-3.288845	lawless	0.05676671
-3.464936	lead	-0.0007443696
-3.163906	leader	0.05317146
-3.288845	leaders	0.05899072
-3.288845	leave	0.01311292
-3.464936	led	0.05762078
-3.288845	left	0.07225532
-3.464936	less	0.04891855
-2.765966	let	0.01358211
-3.288845	lets	-0.002308337
-3.288845	lies	0.003174399
-2.920868	lieutenant	0.04375852
-3.288845	life	0.06261562
-2.561846	like	0.04263018
-3.066996	little	0.0546256
-3.066996	live	0.006316412
-2.987815	lives	0.04696349
-3.288845	long	-0.001710854
-3.464936	look	-0.0005204874
-3.288845	looking	1.149904e-05
-3.288845	looks	-0.001822206
-3.464936	lose	0.04891855
-3.163906	lot	0.06351024
-3.288845	love	0.0148952
-3.288845	mad	0.05616366
-2.987815	made	0.0162467
-3.163906	magistrate	0.04721208
-2.686785	make	0.08303207
-2.811724	man	0.01970517
-2.987815	many	0.05592163
-3.288845	mar	-0.002343881
-3.163906	matt	0.1136205
-2.987815	may	0.05695556
-2.122514	me	0.1472715
-3.288845	mean	0.008880372
-3.464936	men	0.00937
-2.686785	mengsk	0.06058789
-3.288845	military	0.05676671
-3.464936	mind	0.04891855
-3.066996	mine	0.04852399
-3.288845	moment	0.04997449
-3.288845	monster	0.04837797
-2.652023	more	0.1085419
-2.920868	most	0.117831
-3.288845	move	0.04921751
-3.288845	mr	0.05616366
-2.765966	must	-0.002767758
-2.274605	my	0.02907411
-3.288845	name	0.006970041
-2.686785	need	0.02274539
-2.686785	never	0.04884937
-2.920868	new	0.05300348
-3.163906	nice	0.06718776
-3.288845	night	0.01319026
-2.561846	no	0.1080928
-2.385755	not	0.1230845
-2.987815	nothing	0.04951788
-2.288845	now	0.05451204
-1.846888	of	0.1269449
-3.163906	off	0.04962748
-3.288845	oh	0.00332559
-2.987815	old	-0.005721357
-2.274605	on	0.1560442
-2.920868	once	0.01658508
-2.487213	one	0.1171099
-3.288845	ones	-0.002084377
-3.163906	only	-0.002002954
-2.652023	or	0.004059216
-3.288845	order	0.06322272
-2.987815	orders	0.04669062
-3.163906	other	0.05882645
-3.288845	others	-0.002457578
-2.535517	our	0.04322092
-3.464936	ours	-0.0005204874
-2.385755	out	0.129592
-2.765966	over	0.06304701
-3.163906	overmind	-0.004245416
-3.288845	owe	0.01195449
-2.920868	own	0.08485742
-3.163906	pack	0.002170868
-3.163906	past	0.06098906
-2.920868	peace	0.1189278
-2.920868	people	0.05258044
-3.288845	perhaps	0.002117538
-3.288845	petty	0.05624906
-3.288845	piece	0.005143993
-3.288845	place	0.04806447
-3.288845	plan	0.01064533
-3.163906	planet	0.05684796
-3.288845	pleasure	0.04754005
-2.765966	power	0.06654499
-3.288845	powerful	0.001288946
-3.464936	prep	0.00104993
-3.066996	prepared	0.0638819
-3.464936	present	-0.001415325
-3.288845	pretty	-0.002830459
-2.987815	primal	0.0556657
-3.288845	prophecies	0.04806447
-2.811724	protoss	0.04951245
-3.288845	pulled	0.0005370511
-2.862876	queen	0.04995878
-3.288845	quillgor	0.000988032
-3.288845	quit	-0.00283046
-2.920868	raynor	0.1341315
-3.163906	raynors	0.05496307
-3.288845	ready	0.00811523
-3.163906	realize	0.003734564
-2.987815	really	0.1304891
-3.288845	reason	0.05047988
-3.288845	regret	0.001364208
-3.163906	remember	0.05351214
-3.288845	removed	0.04846185
-3.288845	represent	0.01264918
-3.066996	return	0.1265076
-3.163906	revenge	0.04784055
-2.561846	right	0.1102426
-3.163906	ruined	-0.003872279
-3.066996	rule	0.04952019
-3.288845	run	0.04921751
-3.464936	sacrifice	-0.001340826
-3.288845	sacrificed	-0.002009698
-3.163906	said	0.04668766
-3.288845	same	-0.002681345
-3.288845	sara	0.04972202
-2.765966	sarah	0.04926953
-3.464936	sat	-0.0010427
-3.288845	satisfied	0.04806447
-3.288845	save	1.149857e-05
-3.163906	saved	0.01928127
-3.163906	say	0.01551772
-2.920868	sector	0.06247432
-2.510694	see	0.07650436
-3.163906	seek	0.06778489
-3.163906	seen	0.01079371
-3.464936	self	0.05762078
-3.288845	send	0.004688677
-3.464936	sent	0.0005258264
-3.288845	sentiment	0.05216875
-3.288845	serve	0.06365688
-3.163906	shall	-0.001701738
-3.288845	shattered	0.0537793
-2.987815	she	0.05385089
-3.288845	shes	0.01204306
-3.288845	shining	-0.002979522
-3.163906	should	0.0085478
-3.288845	shouldnt	0.0001615917
-3.288845	shuttles	0.1144729
-3.464936	side	-0.001117251
-3.288845	since	0.01319026
-3.163906	sir	0.04844916
-2.619838	so	0.123277
-3.066996	some	0.05419785
-2.765966	something	0.05593034
-3.288845	sometimes	0.01226311
-2.987815	son	0.06295793
-3.066996	soon	0.1167479
-2.862876	stand	0.1163835
-3.163906	still	-0.003050247
-3.288845	stop	0.0008376532
-3.288845	storms	0.003174399
-3.288845	strong	0.05641991
-3.288845	suit	0.1144729
-3.288845	sure	0.0516614
-2.619838	swarm	0.1115434
-3.464936	tac	0.05762078
-3.066996	take	0.01364834
-3.163906	taken	0.0596043
-3.163906	takes	0.05882645
-3.163906	talk	0.007415758
-3.288845	talking	-0.000702217
-3.288845	tarsonis	0.009263449
-2.862876	tell	0.01384616
-3.288845	terran	-0.00115056
-3.163906	terrans	0.01016414
-2.862876	than	0.02060143
-1.995114	that	0.1331286
-2.862876	thats	0.009054765
-1.480409	the	-0.1028027
-2.724574	their	0.04877167
-2.652023	them	0.07519196
-3.066996	then	0.04680059
-2.724574	there	0.05160989
-2.987815	theres	-0.001133239
-2.811724	these	0.0544183
-2.652023	they	0.05001804
-3.288845	theyll	1.149811e-05
-2.920868	thing	0.06416326
-2.589875	think	0.02036479
-2.066996	this	0.08111515
-3.066996	those	0.05376304
-3.163906	threat	0.00733929
-3.288845	three	-0.002681345
-2.920868	through	0.1329548
-3.464936	til	-0.0008189715
-2.535517	time	0.1410085
-3.163906	times	0.04685511
-1.598649	to	0.06338067
-3.163906	today	0.07419051
-3.288845	together	0.04871359
-3.066996	too	0.1119262
-3.464936	top	0.05762078
-3.288845	trust	0.001740709
-3.163906	try	0.00710997
-3.288845	turn	-0.002084377
-3.163906	turns	0.009085909
-3.066996	tychus	0.04757893
-3.288845	uh	0.01613938
-3.464936	under	-0.001340826
-3.163906	understand	0.01395916
-3.288845	universe	0.04997449
-3.163906	until	0.007339292
-2.652023	up	0.1272041
-3.163906	upon	0.06859694
-2.487213	us	0.1217586
-2.811724	valerian	0.118676
-3.288845	vengeance	0.05624906
-3.163906	very	-0.001890098
-3.288845	voice	0.0009128361
-3.288845	waffles	0.04806447
-3.288845	wait	0.04980616
-3.464936	waitin	0.0006006588
-3.288845	waiting	0.001816049
-3.288845	wake	0.003779477
-2.811724	want	0.07331131
-3.163906	war	0.001687969
-2.464936	was	0.1442046
-2.862876	way	0.04635224
-2.163906	we	0.03528289
-2.510694	well	0.09662201
-2.589875	were	0.0641842
-2.920868	weve	0.0553303
-2.318808	what	0.1416576
-3.066996	whats	0.009531773
-3.066996	when	0.01295289
-3.066996	where	0.01031703
-3.066996	which	0.07075603
-3.288845	while	0.01049157
-2.862876	who	0.05448246
-2.862876	why	0.06784747
-2.247452	will	0.09484814
-2.487213	with	0.01977642
-3.288845	without	0.00174071
-3.464936	won	0.04891855
-3.163906	wont	-0.003872279
-3.066996	work	-0.002363271
-3.288845	working	0.001816049
-3.288845	world	-0.002681345
-3.163906	worlds	0.05736344
-3.163906	would	-0.003274592
-3.163906	wounded	0.05882645
-3.163906	xelnaga	0.06280449
-3.288845	years	0.0537793
-2.862876	yes	0.05526292
-1.491809	you	0.04352452
-2.811724	youll	-0.007710114
-2.041691	your	0.006972745
-2.443747	youre	0.06226705
-3.288845	yours	0.04989032
-3.288845	yourself	0.05005868
-2.686785	youve	-0.01068527
-3.288845	zagara	-0.002269395
-2.987815	zeratul	0.1164647
-2.334603	zerg	0.1297834
-3.066996	zerus	0.05556421

\2-grams:
-1.240398	<s> UNK	0.1109793
-2.758912	<s> a
-2.582821	<s> abathur
-2.758912	<s> admiral
-2.582821	<s> after
-2.582821	<s> ah
-2.758912	<s> aint
-2.582821	<s> all
-2.758912	<s> always
-2.582821	<s> amon
-2.758912	<s> amons
-2.758912	<s> an
-2.758912	<s> ancient
-2.059942	<s> and	-0.0005945168
-2.758912	<s> anything
-2.582821	<s> are	0.004800773
-2.758912	<s> artanis
-2.360972	<s> as
-2.758912	<s> awaiting
-2.758912	<s> be
-2.758912	<s> because
-2.758912	<s> betray
-2.758912	<s> bout
-2.758912	<s> boys
-2.758912	<s> breakfast
-2.758912	<s> bring
-1.945999	<s> but	0.001401898
-2.582821	<s> by
-2.582821	<s> carry
-2.758912	<s> cause
-2.758912	<s> char
-2.758912	<s> come
-2.457882	<s> damn	-1.003756e-05
-2.758912	<s> darlin
-2.758912	<s> defend
-2.758912	<s> destroy
-2.457882	<s> did	0
-2.582821	<s> do
-2.582821	<s> dominion
-2.214844	<s> dont
-2.758912	<s> duran
-2.758912	<s> earth
-2.758912	<s> emperor
-2.758912	<s> end
-2.758912	<s> er
-2.758912	<s> escape
-2.758912	<s> even
-2.758912	<s> everyone
-2.758912	<s> fair
-2.758912	<s> father
-2.758912	<s> fenix
-2.360972	<s> for
-2.214844	<s> general	0.003346874
-2.758912	<s> give
-2.758912	<s> go
-2.281791	<s> good
-2.758912	<s> hatred
-2.156852	<s> he
-2.582821	<s> heard
-2.457882	<s> hell	-2.988009e-05
-2.582821	<s> hello
-2.758912	<s> here
-2.582821	<s> hes
-2.758912	<s> his
-2.214844	<s> how	-4.125806e-05
-1.173451	<s> i	0.02193893
-2.758912	<s> id
-2.214844	<s> if	0.0008129398
-2.758912	<s> iff
-2.360972	<s> ill
-1.913814	<s> im	0.001649285
-2.758912	<s> in
-2.582821	<s> is
-2.281791	<s> it	0.003686827
-1.980761	<s> its	0.001556578
-2.018549	<s> ive	0.002463958
-2.758912	<s> izsha
-2.156852	<s> jim	0.009902602
-2.758912	<s> jimmy
-2.360972	<s> just
-2.457882	<s> kerrigan
-2.758912	<s> kill
-2.758912	<s> korhal
-2.582821	<s> let
-2.582821	<s> lets
-2.758912	<s> lieutenant
-2.758912	<s> life
-2.758912	<s> little
-2.582821	<s> looks	0
-2.758912	<s> make
-2.758912	<s> man
-2.758912	<s> me
-2.281791	<s> my
-2.582821	<s> never
-2.582821	<s> nice
-2.214844	<s> no
-2.582821	<s> not	-0.000102011
-2.214844	<s> now
-2.582821	<s> of
-2.582821	<s> oh
-2.758912	<s> old
-2.758912	<s> on
-2.457882	<s> once
-2.758912	<s> one
-2.758912	<s> or
-2.360972	<s> our	0.004981381
-2.758912	<s> over
-2.582821	<s> perhaps
-2.758912	<s> petty
-2.758912	<s> power
-2.758912	<s> prep
-2.758912	<s> protoss
-2.758912	<s> raynor
-2.758912	<s> raynors
-2.758912	<s> really
-2.582821	<s> same
-2.360972	<s> sarah	0.001666585
-2.758912	<s> satisfied
-2.582821	<s> she
-2.758912	<s> shes
-2.758912	<s> should
-2.758912	<s> sir
-2.156852	<s> so
-2.758912	<s> something
-2.758912	<s> soon
-2.582821	<s> take
-2.457882	<s> tell	0.00168312
-2.214844	<s> that
-2.457882	<s> thats
-1.717519	<s> the	0.04434532
-2.758912	<s> their
-2.758912	<s> then
-2.457882	<s> there	-3.479281e-05
-2.360972	<s> theres
-2.281791	<s> these	0.002537268
-2.360972	<s> they
-2.582821	<s> theyll
-2.214844	<s> this
-2.758912	<s> through
-2.758912	<s> time
-2.582821	<s> to
-2.582821	<s> today
-2.758912	<s> together
-2.758912	<s> turn
-2.457882	<s> turns
-2.758912	<s> tychus
-2.758912	<s> uh
-2.457882	<s> valerian
-2.758912	<s> vengeance
-2.582821	<s> very
-2.758912	<s> war
-1.804669	<s> we	0.006168107
-2.059942	<s> well	-3.877329e-05
-2.105699	<s> were	-2.930523e-05
-2.582821	<s> weve
-1.945999	<s> what	0.003088336
-2.758912	<s> whats
-2.758912	<s> when
-2.758912	<s> where
-2.582821	<s> while
-2.360972	<s> why
-2.582821	<s> with
-2.758912	<s> worlds
-2.758912	<s> xelnaga
-2.281791	<s> yes
-1.406729	<s> you	0.01427187
-2.582821	<s> youll
-2.281791	<s> your
-2.156852	<s> youre	0.001525696
-2.582821	<s> youve
-2.582821	<s> zagara	0
-2.582821	<s> zeratul	0.000838984
-2.758912	<s> zerg
-2.582821	<s> zerus
-0.9013577	UNK </s>
-1.076068	UNK UNK	0.1277429
-2.097257	UNK a	0.02073509
-2.252159	UNK about
-2.796227	UNK admiral
-2.620136	UNK again	0.003387894
-2.495197	UNK against	0.0008507243
-2.796227	UNK aint
-2.495197	UNK all
-2.796227	UNK already
-2.796227	UNK always
-2.796227	UNK among
-2.796227	UNK an
-1.735529	UNK and	0.00871737
-2.796227	UNK any
-2.796227	UNK arcturus
-2.495197	UNK are	0.002335893
-2.796227	UNK armada
-2.796227	UNK around
-2.796227	UNK artanis
-2.495197	UNK as
-2.620136	UNK aside
-2.398287	UNK at	0.0008225525
-2.796227	UNK attack
-2.796227	UNK away
-2.495197	UNK back
-2.398287	UNK be
-2.796227	UNK been
-2.495197	UNK before
-2.620136	UNK being
-2.796227	UNK billion
-2.620136	UNK bitch
-2.796227	UNK breakfast
-2.796227	UNK burn
-2.143015	UNK but	-0.0001453101
-2.398287	UNK by	0.002483036
-2.620136	UNK can
-2.796227	UNK come
-2.796227	UNK directorate
-2.796227	UNK do
-2.620136	UNK dominion
-2.495197	UNK dont	0.0007154942
-2.495197	UNK down
-2.796227	UNK earth
-2.796227	UNK edmund
-2.796227	UNK emitter
-2.796227	UNK emperor
-2.796227	UNK enemies
-2.796227	UNK enough
-2.796227	UNK even
-2.620136	UNK every
-2.796227	UNK everyone
-2.796227	UNK everything
-2.796227	UNK far
-2.796227	UNK fear
-2.796227	UNK fed
-2.796227	UNK feels
-2.796227	UNK figure
-2.796227	UNK fire
-2.143015	UNK for
-2.796227	UNK friend
-2.319106	UNK from	-4.42157e-05
-2.796227	UNK general
-2.796227	UNK get
-2.620136	UNK ground
-2.796227	UNK had
-2.796227	UNK harvest
-2.796227	UNK hate
-2.796227	UNK have
-2.796227	UNK hear
-2.796227	UNK her
-2.495197	UNK here
-2.796227	UNK high
-2.620136	UNK him
-2.620136	UNK his	0.003364654
-2.495197	UNK how
-2.495197	UNK i
-2.796227	UNK if
-1.921166	UNK in	0.007876
-2.495197	UNK into
-2.097257	UNK is	0.005043616
-2.252159	UNK it
-2.796227	UNK iv
-2.796227	UNK ive
-2.796227	UNK izsha
-2.495197	UNK jim
-2.796227	UNK kerrigan
-2.796227	UNK kill
-2.620136	UNK killers	0
-2.796227	UNK know
-2.796227	UNK lawless
-2.796227	UNK leave
-2.796227	UNK lieutenant
-2.620136	UNK like
-2.796227	UNK little
-2.796227	UNK lives
-2.796227	UNK magistrate
-2.620136	UNK man
-2.143015	UNK me	0.01260856
-2.796227	UNK mengsk
-2.796227	UNK moment
-2.796227	UNK more
-2.796227	UNK mr
-2.398287	UNK my
-2.796227	UNK no
-2.495197	UNK not
-2.796227	UNK nothing
-2.796227	UNK now
-1.495197	UNK of	0.008654073
-2.796227	UNK off
-2.796227	UNK old
-2.319106	UNK on	0.0006948984
-2.796227	UNK one
-2.796227	UNK ones
-2.796227	UNK only
-2.796227	UNK or
-2.620136	UNK our
-2.398287	UNK out
-2.796227	UNK peace
-2.796227	UNK people
-2.796227	UNK planet
-2.796227	UNK power
-2.796227	UNK protoss
-2.796227	UNK remember
-2.796227	UNK revenge
-2.495197	UNK right
-2.796227	UNK rule
-2.495197	UNK sarah
-2.796227	UNK sector
-2.796227	UNK sentiment
-2.796227	UNK shall
-2.796227	UNK since
-2.796227	UNK some
-2.495197	UNK something
-2.796227	UNK son
-2.796227	UNK storms
-2.796227	UNK suit
-2.796227	UNK tac
-2.796227	UNK talk
-2.796227	UNK tell
-2.796227	UNK terrans
-2.097257	UNK that
-1.634859	UNK the	0.03860931
-2.620136	UNK their
-2.796227	UNK then
-2.796227	UNK there
-2.620136	UNK think
-2.097257	UNK this	0.004343044
-2.796227	UNK three
-2.620136	UNK time
-1.553189	UNK to	0.022473
-2.796227	UNK today
-2.796227	UNK top
-2.796227	UNK try
-2.796227	UNK turn
-2.620136	UNK until
-2.252159	UNK up	0.0007879916
-2.796227	UNK upon
-2.398287	UNK us
-2.796227	UNK valerian
-2.796227	UNK wake
-2.796227	UNK war
-2.796227	UNK was
-2.495197	UNK we
-2.796227	UNK what
-2.796227	UNK when
-2.796227	UNK why
-2.796227	UNK will
-2.194167	UNK with	0.002423425
-2.796227	UNK work
-2.796227	UNK worlds
-2.796227	UNK years
-1.866808	UNK you	0.0006577545
-2.620136	UNK youll
-2.398287	UNK your	0.01326585
-2.495197	UNK youre
-2.620136	UNK youve
-2.796227	UNK zeratul
-1.264513	a UNK	0.1186848
-2.278754	a bitch
-2.454845	a call
-2.278754	a chance
-2.454845	a clear
-2.454845	a damn
-2.153815	a deal	0.0008507243
-2.454845	a dominion
-2.454845	a fight
-2.454845	a good
-2.454845	a greater
-2.454845	a high
-2.454845	a job
-2.454845	a killer
-2.454845	a leader
-2.454845	a little
-2.454845	a long
-2.153815	a lot
-2.278754	a man
-2.278754	a monster
-2.153815	a new
-2.454845	a stand
-2.454845	a threat
-2.454845	a voice
-2.40654	abathur </s>
-2.40654	abathur are
-2.40654	abathur send
-2.424065	about </s>
-2.247973	about UNK
-2.424065	about enough
-2.424065	about freedom
-2.424065	about it
-2.247973	about jim
-2.424065	about now
-2.424065	about ready
-2.424065	about that
-2.123034	about the	0.008767847
-2.424065	about this
-2.247973	about time	0.002443881
-2.123034	about to
-2.424065	about waffles
-2.424065	about what
-2.247973	about you
-2.40824	admiral </s>
-2.232149	admiral UNK
-2.40824	admiral there
-2.40824	admiral your
-2.40824	after </s>
-2.40824	after UNK
-2.40824	after everything
-2.40824	after that
-2.40824	after you
-1.865865	again </s>
-2.409933	again i
-2.106361	against the	0.003695738
-2.407391	against us
-2.405688	age </s>
-2.405688	age of
-2.405688	ah general
-2.405688	ah to
-2.11227	aint UNK
-2.4133	aint about
-2.4133	aint fair
-2.4133	aint for
-2.237209	aint gonna
-2.4133	aint no
-2.4133	aint seen
-2.4133	aint that
-2.405688	alien UNK
-2.405688	alien piece
-2.2313	alive </s>
-2.407391	alive nothing
-2.407391	alive that
-2.03583	all </s>
-1.889702	all UNK
-2.257679	all about
-2.43377	all are
-2.43377	all be
-2.257679	all been
-2.43377	all clear
-2.43377	all got
-2.43377	all here
-2.43377	all in
-2.43377	all into
-2.43377	all ive
-2.43377	all of
-2.43377	all seen
-2.257679	all so	0.001628849
-2.43377	all that
-1.956649	all the	-5.980721e-05
-2.257679	all this	0.005314885
-2.43377	all those
-2.43377	all to
-2.404834	alli must
-2.405688	allow them
-2.405688	allow you
-2.40654	almost done
-2.40654	almost here
-2.40654	almost there
-2.10721	already </s>
-2.40824	already UNK
-2.40824	already taken
-2.41162	always </s>
-2.235528	always been
-2.41162	always got
-2.41162	always hear
-2.41162	always knew
-2.41162	always remember
-2.41162	always said
-2.41162	always was
-2.246334	am </s>
-2.121396	am UNK
-2.246334	am a	0.02171883
-2.422426	am about
-2.246334	am done
-2.246334	am here
-2.422426	am my
-2.422426	am not
-2.422426	am now
-2.422426	am one
-2.422426	am prepared
-2.121396	am the	0.001808865
-2.422426	am to
-2.422426	am valerian
-2.405688	amon lives
-2.405688	amon must
-2.405688	among the
-2.405688	among them
-2.229597	amons UNK
-1.71349	an UNK	0.05401119
-2.412461	an ancient
-2.232996	ancient </s>
-2.409087	ancient UNK
-2.108057	ancient one	-7.341546e-05
-1.351439	and UNK	0.0927693
-2.465383	and all
-2.465383	and an
-2.465383	and another
-2.465383	and arcturus
-2.465383	and as
-2.465383	and awaiting
-2.465383	and away
-2.465383	and blood
-2.465383	and burn
-2.465383	and by
-2.289292	and destroy
-2.289292	and for	0.001435478
-2.465383	and have
-2.164353	and he	0.0007593643
-2.465383	and hes
-1.988262	and i
-2.465383	and if
-2.465383	and ill
-2.465383	and in
-2.465383	and incredibly
-2.465383	and me
-2.465383	and must
-2.465383	and my
-2.465383	and never
-2.465383	and no
-2.465383	and present
-2.465383	and ready
-2.465383	and run
-2.465383	and saved
-2.289292	and that
-2.067443	and the	-6.481609e-05
-2.465383	and their
-2.465383	and they
-2.289292	and we
-2.465383	and when
-2.289292	and you
-2.465383	and your
-2.465383	and youre
-2.2313	another UNK
-2.407391	another one
-2.407391	another way
-2.2313	any UNK
-2.407391	any piece
-2.407391	any world
-2.229597	anyone </s>
-2.40654	anything </s>
-2.40654	anything less
-2.40654	anything like
-1.934498	arcturus </s>
-2.41162	arcturus UNK
-2.41162	arcturus among
-2.235528	arcturus mengsk
-2.427324	are </s>
-1.950203	are UNK	0.03552051
-2.427324	are all
-2.427324	are almost
-2.427324	are coming
-2.427324	are from
-2.427324	are in
-2.427324	are just
-2.427324	are mine
-2.427324	are my
-2.427324	are prepared
-2.427324	are strong
-2.427324	are upon
-2.427324	are who
-2.427324	are xelnaga
-1.774111	are you	0.01016231
-2.427324	are your
-2.405688	armada </s>
-2.405688	armada and
-2.405688	armor UNK
-2.405688	armor will
-2.407391	around </s>
-2.407391	around arcturus
-2.407391	around me
-2.407391	around the
-2.2313	artanis </s>
-2.407391	artanis jim
-2.407391	artanis wait
-2.418301	as UNK
-2.418301	as fast
-2.418301	as for
-2.418301	as he
-2.418301	as how
-2.24221	as i
-2.24221	as individuals
-2.418301	as is
-2.418301	as raynors
-2.418301	as soon
-2.418301	as we
-2.418301	as well
-2.24221	as you	0.01013231
-2.418301	as youll
-2.40654	ashes around
-2.230449	ashes of
-2.405688	aside our
-2.405688	aside to
-2.41162	at all
-2.41162	at him
-2.41162	at his
-2.41162	at last
-2.41162	at long
-2.11059	at the	0.03437993
-2.41162	at will
-2.405688	attack </s>
-2.405688	attack mar
-2.405688	awaiting orders
-2.405688	awaiting your
-2.235528	away </s>
-2.41162	away UNK
-2.41162	away and
-2.41162	away by
-2.11059	away from
-2.41162	away with
-2.111431	back </s>
-2.412461	back but
-2.412461	back down
-2.412461	back for
-2.412461	back into
-2.236369	back to
-2.412461	back your
-2.405688	battle of
-2.405688	battle one
-1.732394	be UNK	0.05486025
-2.033424	be a
-2.431364	be back
-2.431364	be first
-2.431364	be incredibly
-2.431364	be matt
-2.255272	be mine
-2.255272	be more
-2.431364	be on
-2.431364	be prepared
-2.431364	be quit
-2.431364	be removed
-2.431364	be saved
-2.431364	be shattered
-2.255272	be so
-2.431364	be that
-2.255272	be the
-2.431364	be your
-2.232996	because i
-2.409087	because it
-2.409087	because some
-2.409087	because well
-2.409087	because you
-2.40654	become </s>
-2.40654	become more
-2.40654	become something
-2.418301	been </s>
-2.117271	been UNK
-2.418301	been about
-2.24221	been destroyed
-2.418301	been for
-2.418301	been nothing
-2.418301	been removed
-2.418301	been sent
-2.418301	been taken
-2.24221	been through
-2.24221	been waiting
-2.418301	been working
-2.233842	before i
-2.409933	before sir
-2.233842	before we
-2.409933	before you
-2.409933	before youre
-2.405688	being UNK
-2.405688	being a
-2.40654	believe in
-2.40654	believe this
-2.40654	believe we
-2.404834	betray me
-2.405688	betrayed him
-2.405688	betrayed us
-2.405688	beyond UNK
-2.405688	beyond your
-2.404834	billion people
-2.405688	billions </s>
-2.405688	billions of
-2.40654	biomass UNK
-2.40654	biomass here
-2.40654	biomass to
-2.10721	bitch </s>
-2.40824	bitch UNK
-2.40824	bitch whats
-1.931966	blades </s>
-2.409087	blades and
-2.40654	blood </s>
-2.40654	blood on
-2.40654	blood that
-2.404834	bout time
-2.407391	boys </s>
-2.2313	boys UNK
-2.407391	boys i
-2.405688	breakfast </s>
-2.405688	breakfast and
-2.405688	bring more
-2.405688	bring your
-2.229597	buddy </s>
-2.407391	burn </s>
-2.407391	burn a
-2.407391	burn his
-2.407391	burn to
-2.429752	but UNK
-2.429752	but a
-2.429752	but as
-2.429752	but even
-2.429752	but he
-2.031812	but i	0.004855311
-2.429752	but if
-2.429752	but in
-2.429752	but it
-2.128722	but its	0.001585804
-2.429752	but not
-2.429752	but now
-2.429752	but remember
-2.429752	but that
-2.253661	but the
-2.429752	but uh
-2.429752	but we
-2.429752	but weve
-2.429752	but whats
-2.031812	but you	0.001213845
-2.429752	but your
-2.429752	but youre
-2.238882	by UNK
-2.414973	by a
-1.937852	by the
-2.414973	by this
-2.113943	by you	-0.0006807937
-2.414973	by your
-2.405688	call down
-2.405688	call to
-2.407391	called a
-2.407391	called me
-2.407391	called to
-2.407391	called upon
-2.405688	calling me
-2.405688	calling to
-2.40654	came all
-2.40654	came and
-2.40654	came as
-2.240549	can UNK
-2.416641	can catch
-2.416641	can come
-2.416641	can count
-2.416641	can do
-2.416641	can down
-2.115611	can hardly	0
-2.416641	can i
-2.416641	can never
-2.416641	can save
-2.416641	can wait
-2.416641	can you
-2.108057	cant UNK
-2.409087	cant let
-2.409087	cant plan
-2.409087	cant trust
-2.405688	care at
-2.405688	care where
-2.40654	carry out
-2.40654	carry them
-2.40654	carry your
-2.405688	catch of
-2.405688	catch up
-2.405688	cause here
-2.405688	cause to
-2.407391	chance </s>
-2.407391	chance against
-2.407391	chance right
-2.407391	chance to
-2.009451	char </s>
-2.405688	choices </s>
-2.405688	choices to
-2.405688	chrysalis i
-2.405688	chrysalis until
-2.405688	clear and
-2.405688	clear here
-2.405688	close there
-2.405688	close to
-2.405688	cluster </s>
-2.405688	cluster and
-2.405688	collect are
-2.405688	collect your
-2.4133	come </s>
-2.4133	come UNK
-2.4133	come around
-2.4133	come here
-2.4133	come in
-2.4133	come into
-2.4133	come on
-2.4133	come stand
-2.11227	come to
-2.232149	coming </s>
-2.40824	coming back
-2.40824	coming for
-2.40824	coming to
-2.404834	comm UNK
-2.10721	commander </s>
-2.40824	commander before
-2.40824	commander ive
-2.404834	confederate UNK
-2.229597	confederates or	0.001636973
-2.40654	control it
-2.230449	control of
-2.232996	could </s>
-2.409087	could always
-2.409087	could count
-2.409087	could have
-2.409087	could see
-2.229597	count on
-2.229597	course </s>
-2.232149	damn UNK	0.05567272
-2.40824	damn jimmy
-2.40824	damn jukebox
-2.40824	damn thing
-2.405688	dangerous </s>
-2.405688	dangerous than
-2.10551	darlin </s>
-2.405688	day is
-2.405688	day magistrate
-2.01368	dead </s>
-2.41162	dead UNK
-2.235528	dead and
-2.41162	dead called
-2.41162	dead for
-2.407391	deal </s>
-2.106361	deal with	0.003249102
-2.10551	defend the	-6.984477e-05
-2.229597	dehaka </s>
-2.409933	destroy all
-2.409933	destroy it
-2.409933	destroy korhal
-2.108903	destroy the	0.03437993
-2.409933	destroy them
-2.40654	destroyed </s>
-2.40654	destroyed and
-2.40654	destroyed theres
-2.229597	devil jimmy	0.0008256775
-2.10551	did you
-2.407391	die </s>
-2.407391	die UNK
-2.407391	die a
-2.407391	die before
-2.405688	died because
-2.405688	died before
-2.229597	dies </s>
-2.405688	difficult battle
-2.405688	difficult you
-2.230449	directorate </s>
-2.40654	directorate has
-2.247973	do </s>
-2.247973	do UNK
-2.424065	do a
-2.247973	do anything
-2.424065	do as
-2.424065	do i
-2.424065	do know
-2.424065	do not
-2.247973	do something
-2.424065	do what
-2.424065	do when
-1.725095	do you
-2.405688	doing </s>
-2.405688	doing well
-1.875061	dominion </s>
-2.118099	dominion UNK
-2.419129	dominion and
-2.419129	dominion armada
-2.419129	dominion fleet
-2.243038	dominion military	0
-2.419129	dominion not
-2.419129	dominion now
-2.419129	dominion on
-2.419129	dominion to
-2.11227	done </s>
-2.237209	done UNK
-2.237209	done here	0.008927021
-2.4133	done or
-2.4133	done the
-2.4133	done to
-2.4133	done very
-2.123852	dont UNK
-2.424882	dont be
-2.424882	dont believe
-2.424882	dont care
-2.424882	dont do
-2.424882	dont even
-2.424882	dont ever
-2.424882	dont fear
-2.424882	dont give
-2.24879	dont have	0.004704813
-2.424882	dont i
-2.24879	dont know
-2.424882	dont need
-2.424882	dont owe
-2.424882	dont quit
-2.24879	dont think
-2.424882	dont want
-2.123852	dont you
-2.410777	down </s>
-2.410777	down UNK
-2.410777	down a
-2.410777	down for
-2.410777	down now
-2.410777	down on
-2.410777	down the
-2.410777	down your
-2.405688	dream </s>
-2.405688	dream of
-2.405688	dreamed of
-2.405688	dreamed you
-2.40654	duke </s>
-2.40654	duke of
-2.40654	duke without
-2.10551	duran </s>
-2.10551	each other	0
-2.40654	earth </s>
-2.230449	earth directorate	-5.048467e-06
-2.229597	edmund duke
-2.404834	em hell
-2.229597	emitter in
-2.407391	emperor held
-2.407391	emperor how
-2.407391	emperor mengsk
-2.407391	emperor valerian
-2.40654	end for
-2.40654	end this
-2.40654	end we
-2.405688	enemies </s>
-2.405688	enemies UNK
-2.10721	enough </s>
-2.40824	enough for
-2.40824	enough of
-2.404834	er you
-2.404834	era of
-2.229597	escape </s>
-2.405688	essence </s>
-2.405688	essence is
-2.409087	even freedom
-2.409087	even human
-2.409087	even know
-2.409087	even now
-2.409087	even see
-2.409087	even youve
-1.933656	ever UNK
-2.410777	ever be
-2.410777	ever dreamed
-2.410777	ever try
-2.106361	every UNK	0.03551047
-2.407391	every last
-2.405688	everyone has
-2.405688	everyone out
-2.407391	everything </s>
-2.407391	everything on
-2.407391	everything that
-2.407391	everything to
-2.405688	expected to
-2.405688	expected your
-2.405688	fair </s>
-2.405688	fair enough
-2.40654	far by
-2.40654	far more
-2.40654	far too
-2.404834	fast as
-2.232996	father </s>
-2.232996	father i
-2.409087	father is
-2.409087	father will
-2.40654	fear UNK
-2.40654	fear and
-2.40654	fear me
-2.404834	fed me
-2.40654	feel as
-2.40654	feel the
-2.40654	feel your
-2.405688	feels </s>
-2.405688	feels like
-2.106361	fenix </s>
-2.407391	fenix and
-2.405688	fight </s>
-2.405688	fight the
-2.405688	figure it
-2.405688	figure that
-2.40654	find </s>
-2.40654	find more
-2.40654	find that
-2.229597	findlay </s>
-2.40654	fire UNK
-2.40654	fire and
-2.40654	fire at
-2.410777	first </s>
-2.012837	first UNK	0.0556828
-2.410777	first in
-2.410777	first place
-2.410777	first time
-2.40654	fleet </s>
-2.40654	fleet is
-2.40654	fleet this
-2.134336	for </s>
-2.435366	for UNK
-2.259275	for a
-2.037426	for all	0.001460366
-2.435366	for every
-2.435366	for everything
-2.435366	for fenix
-2.435366	for good
-2.259275	for i	0.01307855
-2.435366	for in
-2.435366	for jim
-2.435366	for jump
-2.435366	for my
-2.435366	for nothing
-2.435366	for our
-2.435366	for power
-1.736397	for the	0.03356241
-2.435366	for them
-2.259275	for this
-2.435366	for us
-2.435366	for what
-2.435366	for you
-2.40654	forces UNK
-2.40654	forces are
-2.40654	forces to
-2.405688	forget it
-2.405688	forget that
-2.404834	free </s>
-2.405688	freedom </s>
-2.405688	freedom has
-2.405688	friend UNK
-2.405688	friend lieutenant
-2.239717	from UNK
-2.415808	from but
-2.415808	from earth
-2.415808	from korhal
-2.415808	from me
-2.415808	from new
-2.415808	from now
-2.415808	from our
-2.415808	from power
-2.415808	from son
-2.239717	from the
-2.415808	from their
-1.812077	general </s>
-2.414137	general duke
-2.414137	general edmund
-2.414137	general the
-2.414137	general were
-2.414137	general you
-2.4133	get away
-2.4133	get back
-2.4133	get him
-2.4133	get in
-2.11227	get out	0.0007279082
-2.237209	get the
-2.237209	get you
-2.409087	give em
-2.409087	give up
-2.409087	give us
-2.108057	give you
-2.409087	go </s>
-2.409087	go all
-2.409087	go free
-2.409087	go jim
-2.409087	go now
-2.409087	go through
-2.405688	god is
-2.405688	god kerrigan
-2.405688	goin on
-2.405688	goin to
-2.410777	going UNK
-2.410777	going back
-1.866709	going to	0.00226875
-2.232996	gonna UNK
-2.409087	gonna make
-2.409087	gonna regret
-2.409087	gonna run
-2.409087	gonna stand
-2.238882	good </s>
-2.113943	good UNK	0.05482033
-2.414973	good admiral
-2.414973	good day
-2.414973	good good
-2.414973	good i
-2.414973	good lieutenant
-2.238882	good night
-2.414973	good reason
-2.415808	got UNK
-2.017868	got a	0.02087315
-2.415808	got it
-2.415808	got left
-2.415808	got on
-2.415808	got our
-2.239717	got them	-4.960923e-05
-2.415808	got to
-2.239717	got us
-2.405688	great shining
-2.405688	great to
-2.40654	greater </s>
-2.230449	greater UNK
-2.407391	ground </s>
-2.407391	ground UNK
-2.407391	ground here
-2.407391	ground than
-2.405688	guess i
-2.405688	guess your
-2.409933	had UNK
-2.409933	had a
-2.409933	had expected
-2.409933	had this
-2.233842	had to
-2.409933	had waffles
-2.404834	hand a
-2.405688	hands </s>
-2.405688	hands than
-2.404834	hard to
-2.40654	hardly UNK
-2.230449	hardly believe
-2.405688	harvest UNK
-2.405688	harvest this
-2.409087	has a
-2.409087	has always
-2.232996	has been
-2.232996	has to
-2.40654	hate is
-2.40654	hate me
-2.40654	hate to
-2.405688	hatred </s>
-2.405688	hatred UNK
-2.131939	have UNK
-2.256878	have a
-2.432969	have been
-2.256878	have come
-2.432969	have died
-2.432969	have ever
-2.432969	have his
-2.256878	have killed
-2.256878	have more
-2.432969	have no
-2.256878	have the	0.03437489
-2.432969	have they
-2.432969	have this
-2.432969	have three
-1.779757	have to	0.0001312159
-2.432969	have what
-2.432969	have won
-2.131939	have you
-2.432969	have your
-2.405688	having UNK
-2.405688	having had
-2.118099	he UNK
-2.419129	he aint
-2.419129	he already
-2.419129	he died
-2.419129	he dies
-2.243038	he is
-2.419129	he looking
-2.419129	he may
-2.419129	he must
-2.419129	he never
-2.118099	he was
-2.243038	he will
-2.409933	hear a
-2.108903	hear me	0.01188884
-2.409933	hear sarah
-2.409933	hear the
-2.409933	hear you
-2.40824	heard a
-2.40824	heard about
-2.40824	heard over
-2.40824	heard they
-2.40824	heard you
-2.229597	held a	0.02171883
-2.41162	hell </s>
-2.41162	hell and
-2.41162	hell artanis
-2.41162	hell ever
-2.235528	hell its	-8.320995e-05
-2.41162	hell ive
-2.235528	hell with
-2.405688	hello duran
-2.405688	hello kerrigan
-2.409087	help </s>
-2.409087	help bring
-2.409087	help here
-2.232996	help me
-2.409087	help you
-2.405688	her </s>
-2.405688	her into
-1.583037	here </s>
-2.127105	here UNK	0.05567777
-2.252043	here and
-2.428135	here arcturus
-2.252043	here for
-2.428135	here from
-2.428135	here now
-2.428135	here they
-2.127105	here to
-2.428135	here we
-2.428135	here yes
-2.407391	hes had
-2.407391	hes in
-2.407391	hes never
-2.407391	hes right
-2.405688	high UNK
-2.405688	high ground
-2.01368	him </s>
-2.41162	him a
-2.41162	him now
-2.41162	him out
-2.41162	him then
-2.41162	him this
-1.867552	his UNK	0.03381903
-2.41162	his dominion
-2.41162	his hatred
-2.41162	his ruined
-2.230449	hive cluster
-2.40654	hive mind
-2.4133	how UNK
-2.4133	how do
-2.4133	how he
-2.4133	how i
-2.01536	how many	-6.691786e-06
-2.4133	how powerful
-2.4133	how this
-2.4133	how well
-2.404834	human UNK
-2.10551	humanity </s>
-2.335792	i </s>
-1.557641	i UNK	0.05987897
-1.451185	i am	0
-2.113943	i can	-7.219822e-05
-2.511883	i cant
-2.511883	i come
-2.210853	i could
-1.771521	i dont	-0.0001437524
-2.511883	i dreamed
-2.511883	i expected
-2.511883	i feel
-2.335792	i got
-2.335792	i guess
-2.210853	i had	-1.999782e-05
-2.511883	i hate
-2.113943	i have
-2.210853	i hear
-2.511883	i heard
-2.511883	i just
-2.511883	i knew
-1.858671	i know	0.001587117
-2.511883	i let
-2.335792	i like
-2.511883	i live
-2.511883	i look
-2.335792	i love
-2.210853	i made	-1.003756e-05
-2.511883	i must
-2.113943	i need	-3.465777e-05
-2.511883	i once
-2.511883	i order
-2.511883	i owe
-2.335792	i own
-2.511883	i represent
-2.511883	i see
-2.511883	i send
-2.511883	i shall
-2.511883	i shouldnt
-2.511883	i stand
-2.511883	i tell
-2.034762	i think	-4.42157e-05
-2.511883	i tychus
-2.210853	i want	-3.332947e-05
-1.909823	i was	0.002425443
-1.909823	i will	0.0006927645
-2.335792	i wont
-2.335792	i would
-2.404834	ice </s>
-2.40654	id be
-2.40654	id keep
-2.40654	id like
-2.414137	if he
-2.414137	if hell
-2.113107	if i
-2.414137	if its
-2.414137	if raynor
-2.414137	if thats
-2.414137	if the
-2.113107	if you
-2.404834	iff UNK
-2.409933	ill UNK
-2.409933	ill collect
-2.409933	ill get
-2.409933	ill give
-2.409933	ill leave
-2.409933	ill let
-2.409933	ill see
-1.94035	im UNK
-2.417472	im doing
-2.417472	im far
-2.417472	im general
-2.019532	im going	0.002530575
-2.417472	im having
-2.417472	im here
-2.417472	im just
-2.417472	im looking
-2.256878	in UNK
-2.432969	in a
-2.432969	in an
-2.432969	in blood
-2.432969	in here
-2.256878	in me
-2.432969	in my
-2.432969	in place
-2.432969	in shining
-1.557908	in the	0.03140856
-2.432969	in there
-2.131939	in this
-2.432969	in time
-2.432969	in way
-2.432969	in years
-2.131939	in your
-2.405688	incredibly ancient
-2.405688	incredibly dangerous
-2.405688	individuals they
-2.405688	individuals to
-2.11059	into UNK	0.05567777
-2.41162	into a
-2.41162	into one
-2.41162	into power
-2.41162	into the
-2.41162	into this
-2.41162	into your
-1.748963	is UNK	0.05316046
-2.271842	is a	0.02171883
-2.447933	is alive
-2.447933	is almost
-2.447933	is an
-2.447933	is arcturus
-2.271842	is beyond
-2.447933	is coming
-2.146903	is dead	0.001666585
-2.447933	is doing
-2.271842	is done	-4.473492e-05
-2.271842	is going
-2.447933	is heard
-2.271842	is it
-2.271842	is just
-2.447933	is mine
-2.447933	is my
-2.271842	is no
-2.271842	is our
-2.447933	is ours
-2.146903	is over	0.0008175238
-2.447933	is right
-2.447933	is shattered
-2.447933	is so
-2.447933	is something
-2.447933	is strong
-2.049993	is that
-2.271842	is the
-2.447933	is time
-2.447933	is too
-1.592653	it </s>
-1.835691	it UNK	0.05484705
-2.437751	it aint
-2.437751	it all
-2.437751	it and
-2.437751	it burn
-2.437751	it dont
-2.437751	it i
-2.261659	it is
-2.437751	it off
-2.437751	it or
-2.437751	it out
-2.437751	it pretty
-2.136721	it takes	0
-2.437751	it that
-2.437751	it this
-2.261659	it was
-2.437751	it will
-2.437751	it wont
-2.022016	its UNK	0.05482705
-2.118926	its a	0.02086643
-2.243865	its about	-0.000106666
-2.243865	its all
-2.419956	its always
-2.419956	its called
-2.419956	its like
-2.419956	its not
-2.419956	its our
-2.419956	its over
-2.243865	its time
-2.404834	iv is
-2.116442	ive UNK
-2.417472	ive already
-2.417472	ive always
-1.94035	ive been	0.0007212991
-2.417472	ive come
-2.417472	ive done
-2.417472	ive heard
-2.417472	ive just
-2.417472	ive led
-2.417472	ive saved
-2.230449	izsha </s>
-2.40654	izsha is
-1.549003	jim </s>
-2.424065	jim UNK
-2.424065	jim are
-2.424065	jim for
-2.424065	jim go
-2.424065	jim is
-2.424065	jim out
-2.123034	jim raynor
-2.424065	jim raynors
-2.108903	jimmy </s>
-2.409933	jimmy UNK
-2.409933	jimmy but
-2.409933	jimmy raynor
-2.409933	jimmy youve
-2.407391	job </s>
-2.407391	job done
-2.407391	job general
-2.407391	job to
-2.405688	jukebox </s>
-2.405688	jukebox and
-2.405688	jump </s>
-2.405688	jump now
-1.942008	just UNK
-2.419129	just a
-2.419129	just an
-2.419129	just gonna
-2.419129	just it
-2.419129	just know
-2.118099	just like
-2.419129	just mar
-2.419129	just not
-2.419129	just see
-2.243038	just the
-2.405688	keep an
-2.405688	keep your
-1.812913	kerrigan </s>
-2.414973	kerrigan UNK
-2.414973	kerrigan another
-2.414973	kerrigan storms
-2.414973	kerrigan they
-2.414973	kerrigan what
-2.414973	kerrigan you
-2.237209	kill me
-2.237209	kill mengsk
-2.4133	kill my
-2.4133	kill the
-2.4133	kill them
-2.4133	kill these
-2.11227	kill you	0.01272245
-2.407391	killed </s>
-2.407391	killed billions
-2.407391	killed here
-2.407391	killed your
-2.404834	killer </s>
-2.229597	killers </s>
-2.405688	knew UNK
-2.405688	knew i
-2.246334	know </s>
-2.422426	know all
-2.422426	know for
-2.422426	know he
-2.422426	know i
-2.422426	know is
-2.422426	know it
-2.422426	know ive
-2.422426	know matt
-2.024486	know that
-2.121396	know what
-2.422426	know where
-2.422426	know which
-2.246334	know you
-2.422426	know yourself
-2.108057	korhal </s>
-2.409087	korhal and
-2.409087	korhal is
-2.409087	korhal soon
-2.40824	last man
-2.40824	last on
-2.40824	last our
-2.40824	last you
-2.40824	last zerg
-2.229597	lawless UNK
-2.404834	lead them
-2.40654	leader </s>
-2.40654	leader ill
-2.40654	leader of
-2.405688	leaders UNK
-2.405688	leaders have
-2.405688	leave here
-2.405688	leave you
-2.404834	led UNK
-2.405688	left UNK
-2.405688	left you
-2.404834	less </s>
-2.41162	let all
-2.41162	let me
-2.235528	let us
-2.11059	let you	-0.0006807937
-2.41162	let your
-2.41162	let yourself
-2.405688	lets get
-2.405688	lets move
-2.405688	lies and
-2.405688	lies dead
-2.108057	lieutenant </s>
-2.409087	lieutenant duran
-2.409087	lieutenant get
-2.409087	lieutenant should
-2.405688	life UNK
-2.405688	life and
-2.240549	like it
-2.416641	like its
-2.416641	like old
-2.416641	like that
-2.416641	like the
-2.416641	like this
-2.416641	like to
-2.416641	like what
-2.115611	like you
-2.416641	like your
-2.416641	like youre
-2.416641	like youve
-2.2313	little UNK
-2.407391	little help
-2.407391	little jimmy
-2.407391	live because
-2.2313	live to
-2.407391	live youll
-2.232149	lives </s>
-2.40824	lives but
-2.40824	lives ruined
-2.40824	lives youve
-2.405688	long last
-2.405688	long time
-2.404834	look like
-2.405688	looking for
-2.405688	looking through
-2.229597	looks over	-3.492855e-05
-2.404834	lose </s>
-2.40654	lot UNK
-2.40654	lot about
-2.40654	lot of
-2.405688	love you
-2.405688	love your
-2.405688	mad UNK
-2.405688	mad prophecies
-2.232149	made a	0.00049116
-2.40824	made it
-2.40824	made us
-2.40824	made you
-2.10551	magistrate </s>
-2.4133	make </s>
-2.4133	make a
-2.01536	make it	0.01266529
-2.4133	make peace
-2.4133	make sure
-2.4133	make the
-2.4133	make you
-2.4133	make your
-2.410777	man alive
-2.410777	man do
-2.410777	man i
-2.410777	man in
-2.410777	man just
-2.410777	man never
-2.410777	man sacrificed
-2.410777	man you
-2.40824	many UNK
-2.10721	many more	0.001642021
-2.40824	many zerg
-2.229597	mar sara
-2.230449	matt </s>
-2.40654	matt UNK
-2.232149	may UNK
-2.40824	may be
-2.40824	may find
-2.40824	may not
-1.48509	me </s>
-2.263242	me UNK
-2.263242	me and
-2.439333	me away
-2.439333	me destroy
-2.439333	me do
-2.439333	me from
-2.439333	me got
-2.439333	me here
-2.439333	me jim
-2.439333	me now
-2.439333	me or
-2.439333	me right
-2.439333	me than
-2.439333	me that
-2.439333	me the
-2.041393	me to
-2.439333	me well
-2.439333	me what
-2.439333	me why
-2.439333	me without
-2.439333	me your
-2.405688	mean like
-2.405688	mean to
-2.404834	men to
-2.237209	mengsk </s>
-2.11227	mengsk and
-2.4133	mengsk came
-2.4133	mengsk dead
-2.4133	mengsk held
-2.4133	mengsk i
-2.237209	mengsk is
-2.229597	military UNK
-2.404834	mind </s>
-2.106361	mine </s>
-2.407391	mine in
-2.405688	moment </s>
-2.405688	moment will
-2.405688	monster </s>
-2.405688	monster kerrigan
-2.414137	more </s>
-2.016197	more UNK
-2.414137	more cause
-2.414137	more dangerous
-2.414137	more have
-2.414137	more on
-2.414137	more powerful
-2.414137	more quillgor
-2.414137	more than
-2.409087	most </s>
-2.108057	most UNK	0.03551047
-2.409087	most difficult
-2.409087	most of
-2.405688	move </s>
-2.405688	move out
-2.405688	mr UNK
-2.405688	mr findlay
-2.01368	must be
-2.41162	must do
-2.235528	must have
-2.41162	must know
-2.41162	must seek
-1.616031	my UNK	0.09275737
-2.428944	my damn
-2.428944	my dead
-2.428944	my enemies
-2.127914	my father
-2.252853	my good
-2.252853	my hands
-2.428944	my life
-2.428944	my name
-2.428944	my need
-2.428944	my own
-2.428944	my pleasure
-2.428944	my rule
-2.428944	my son
-2.428944	my way
-2.405688	name is
-2.405688	name of
-2.4133	need a
-2.4133	need that
-1.81124	need to	0.002811248
-2.237209	need you
-2.237209	never UNK
-2.4133	never coming
-2.4133	never could
-2.4133	never do
-2.4133	never forget
-2.4133	never hand
-2.4133	never left
-2.4133	never my
-2.4133	never really
-2.4133	never seek
-2.232996	new UNK
-2.409087	new age
-2.409087	new dominion
-2.409087	new era
-2.409087	new mengsk
-2.40654	nice UNK
-2.40654	nice suit
-2.40654	nice to
-2.405688	night my
-2.405688	night you
-2.240549	no </s>
-2.115611	no UNK
-2.416641	no chance
-2.416641	no jim
-2.240549	no one
-2.416641	no ones
-2.416641	no thats
-2.416641	no time
-2.416641	no us
-2.416641	no way
-2.416641	no youre
-2.423246	not </s>
-2.423246	not UNK
-2.122216	not be
-2.423246	not because
-2.247155	not by	0.0007863771
-2.423246	not even
-2.423246	not gonna
-2.423246	not having
-2.423246	not him
-2.423246	not jim
-2.247155	not just
-2.423246	not like
-2.423246	not now
-2.423246	not represent
-2.423246	not return
-2.423246	not right
-2.423246	not to
-2.423246	not work
-2.423246	not your
-2.232149	nothing </s>
-2.232149	nothing but
-2.40824	nothing in
-1.583037	now </s>
-2.252043	now and
-2.428135	now are
-2.428135	now at
-2.428135	now can
-2.428135	now commander
-2.428135	now darlin
-2.127105	now i
-2.428135	now is
-2.428135	now jim
-2.428135	now me
-2.428135	now on
-2.428135	now thats
-2.428135	now youll
-2.292994	of </s>
-1.623987	of UNK	0.09362785
-2.168055	of a	-0.0002704193
-2.469085	of age
-2.469085	of all
-2.469085	of an
-2.469085	of arcturus
-2.469085	of biomass
-1.925017	of blades	0
-2.469085	of but
-2.469085	of char
-2.292994	of course	0
-2.469085	of dominion
-2.469085	of emperor
-2.469085	of fire
-2.469085	of god
-2.469085	of hell
-2.469085	of here
-2.469085	of his
-2.469085	of humanity
-2.469085	of it
-2.469085	of korhal
-2.168055	of my
-2.469085	of our
-2.168055	of peace
-2.469085	of quillgor
-2.469085	of that
-1.623987	of the	0.04729452
-2.168055	of this	0.005319933
-2.469085	of those
-2.469085	of times
-2.469085	of us
-2.469085	of which
-2.292994	of you	0.0127174
-2.071145	of your	0.0124101
-2.469085	of yours
-2.469085	of zerg
-2.292994	of zerus
-2.230449	off </s>
-2.40654	off for
-2.405688	oh and
-2.405688	oh come
-2.232149	old buddy	0
-2.40824	old queen
-2.232149	old times
-2.428944	on </s>
-2.127914	on UNK
-2.428944	on a
-2.428944	on arcturus
-2.428944	on char
-2.252853	on each	0.0008523939
-2.428944	on ice
-2.428944	on me
-2.127914	on my	-0.0001291872
-2.428944	on our
-2.428944	on sarah
-2.428944	on some
-2.428944	on tarsonis
-2.428944	on that
-1.951823	on the	0.0335359
-2.127914	on this	0.007712746
-2.252853	on you	0.0127174
-2.428944	on your
-2.409087	once again
-2.232996	once and	-0.0003305504
-2.409087	once the
-2.409087	once was
-2.409087	once we
-2.243038	one </s>
-2.419129	one UNK
-2.419129	one after
-2.419129	one another
-2.243038	one is
-2.021189	one of	0.007890262
-2.419129	one once
-2.419129	one that
-2.419129	one thats
-2.243038	one thing
-2.243038	one who
-2.405688	ones ever
-2.405688	ones first
-2.10551	only one
-2.238046	or anyone	0
-2.414137	or dead
-2.414137	or die
-2.414137	or he
-2.414137	or not
-2.414137	or see
-2.016197	or the	0.0004985635
-2.414137	or where
-2.405688	order </s>
-2.405688	order you
-2.40824	orders </s>
-2.40824	orders commander
-2.40824	orders for
-2.40824	orders lieutenant
-2.40824	orders mr
-2.230449	other </s>
-2.40654	other to
-2.405688	others artanis
-2.405688	others who
-1.764259	our UNK	0.03678953
-2.417472	our choices
-2.417472	our dominion
-2.24138	our first	0.001669789
-2.417472	our lives
-2.417472	our peace
-2.417472	our side
-2.417472	our war
-2.404834	ours like
-1.770033	out </s>
-2.423246	out UNK
-2.423246	out another
-2.423246	out by
-2.423246	out here
-2.423246	out its
-2.423246	out let
-2.122216	out of
-2.247155	out on
-2.247155	out there	0.001653316
-2.423246	out to
-2.423246	out your
-2.11059	over </s>
-2.235528	over at
-2.41162	over my
-2.41162	over their
-2.41162	over you
-2.41162	over your
-2.40654	overmind feel
-2.40654	overmind lies
-2.40654	overmind which
-2.405688	owe him
-2.405688	owe the
-2.108057	own UNK	0.05567777
-2.409087	own choices
-2.409087	own the
-2.409087	own you
-2.230449	pack leaders
-2.40654	pack of
-2.40654	past UNK
-2.40654	past all
-2.40654	past it
-2.409087	peace </s>
-2.232996	peace UNK
-2.232996	peace and	0.01721138
-2.409087	peace with
-2.409087	people </s>
-2.232996	people have
-2.409087	people is
-2.232996	people will
-2.405688	perhaps not
-2.405688	perhaps this
-2.405688	petty UNK
-2.405688	petty revenge
-2.405688	piece of
-2.405688	piece on
-2.229597	place </s>
-2.405688	plan for
-2.405688	plan to
-2.40654	planet UNK
-2.40654	planet because
-2.40654	planet not
-2.405688	pleasure </s>
-2.405688	pleasure darlin
-2.235528	power </s>
-2.41162	power again
-2.41162	power and
-2.235528	power of	-0.0003495861
-2.41162	power to
-2.41162	power was
-2.41162	power zeratul
-2.405688	powerful is
-2.405688	powerful than
-2.404834	prep all
-2.407391	prepared </s>
-2.407391	prepared and
-2.2313	prepared to
-2.404834	present threat
-2.405688	pretty close
-2.405688	pretty little
-2.40824	primal UNK
-2.0103	primal zerg	0.004838735
-2.229597	prophecies </s>
-2.234686	protoss </s>
-2.234686	protoss are
-2.410777	protoss have
-2.234686	protoss or	-4.960923e-05
-2.410777	protoss we
-2.405688	pulled back
-2.405688	pulled it
-2.409933	queen </s>
-1.865865	queen of	-0.0007745377
-2.405688	quillgor is
-2.405688	quillgor izsha
-2.405688	quit already
-2.405688	quit til
-2.232996	raynor </s>
-2.409087	raynor UNK
-2.409087	raynor could
-2.409087	raynor is
-2.409087	raynor the
-2.40654	raynors UNK
-2.40654	raynors nothing
-2.40654	raynors voice
-2.405688	ready commander
-2.405688	ready to
-2.40654	realize my
-2.40654	realize that
-2.40654	realize what
-2.40824	really </s>
-2.232149	really UNK
-2.40824	really think
-2.40824	really you
-2.405688	reason </s>
-2.405688	reason for
-2.405688	regret that
-2.405688	regret tychus
-2.40654	remember </s>
-2.40654	remember in
-2.40654	remember that
-2.405688	removed </s>
-2.405688	removed from
-2.405688	represent one
-2.405688	represent the
-2.2313	return </s>
-2.407391	return UNK
-2.407391	return to
-2.40654	revenge </s>
-2.40654	revenge than
-2.40654	revenge was
-1.939519	right </s>
-2.416641	right UNK
-2.416641	right about
-2.416641	right fenix
-2.416641	right here
-2.416641	right kerrigan
-2.115611	right now	0.008074627
-2.416641	right old
-2.416641	right with
-2.40654	ruined arcturus
-2.40654	ruined jukebox
-2.40654	ruined worlds
-2.2313	rule </s>
-2.407391	rule again
-2.407391	rule this
-2.405688	run </s>
-2.405688	run out
-2.404834	sacrifice any
-2.405688	sacrificed everything
-2.405688	sacrificed kerrigan
-2.230449	said </s>
-2.40654	said revenge
-2.405688	same dream
-2.405688	same thing
-2.405688	sara </s>
-2.405688	sara now
-1.934498	sarah </s>
-2.41162	sarah is
-2.41162	sarah kerrigan
-2.41162	sarah no
-2.41162	sarah we
-2.404834	sat down
-2.229597	satisfied </s>
-2.405688	save humanity
-2.405688	save it
-2.40654	saved and
-2.40654	saved you
-2.40654	saved your
-2.40654	say a
-2.40654	say good
-2.40654	say the
-2.232996	sector </s>
-2.409087	sector for
-2.409087	sector or
-2.409087	sector who
-2.409087	sector you
-2.24221	see </s>
-2.418301	see about
-2.418301	see admiral
-2.24221	see it
-2.418301	see jim
-2.418301	see me
-2.418301	see mengsk
-2.418301	see past
-2.24221	see this
-2.418301	see to
-2.418301	see what
-2.117271	see you
-2.40654	seek UNK
-2.230449	seek to	0.0164659
-2.40654	seen enough
-2.230449	seen the
-2.404834	self UNK
-2.405688	send a
-2.405688	send me
-2.404834	sent here
-2.405688	sentiment </s>
-2.405688	sentiment that
-2.405688	serve </s>
-2.405688	serve the
-2.40654	shall allow
-2.40654	shall be
-2.40654	shall ever
-2.405688	shattered </s>
-2.405688	shattered and
-2.40824	she UNK
-2.40824	she after
-2.40824	she aint
-2.40824	she dies
-2.40824	she got
-2.229597	shes the
-2.405688	shining armor
-2.405688	shining dream
-2.40654	should be
-2.40654	should i
-2.40654	should trust
-2.405688	shouldnt have
-2.405688	shouldnt kill
-2.405688	shuttles </s>
-2.405688	shuttles UNK
-2.404834	side before
-2.405688	since my
-2.405688	since you
-2.230449	sir </s>
-2.40654	sir do
-2.414973	so </s>
-2.017033	so UNK
-2.414973	so alive
-2.414973	so if
-2.414973	so im
-2.414973	so sure
-2.414973	so this
-2.414973	so to
-2.414973	so whats
-2.414973	so youll
-2.2313	some UNK
-2.407391	some alien
-2.407391	some help
-2.11059	something UNK	0.002676622
-2.41162	something about
-2.41162	something greater
-2.41162	something primal
-2.41162	something terrans
-2.41162	something that
-2.41162	something youre
-2.405688	sometimes just
-2.405688	sometimes you
-2.40824	son UNK
-2.40824	son but
-2.40824	son no
-2.232149	son of	0.0003921639
-2.407391	soon </s>
-2.407391	soon UNK
-2.407391	soon as
-2.407391	soon we
-2.409933	stand </s>
-2.409933	stand UNK
-2.409933	stand by
-2.409933	stand for
-2.409933	stand here
-2.409933	stand magistrate
-2.409933	stand us
-2.40654	still alive
-2.40654	still got
-2.40654	still stand
-2.405688	stop me
-2.405688	stop them
-2.405688	storms and
-2.405688	storms away
-2.405688	strong UNK
-2.405688	strong enough
-2.405688	suit </s>
-2.405688	suit UNK
-2.405688	sure </s>
-2.405688	sure your
-2.113943	swarm </s>
-2.113943	swarm UNK
-2.414973	swarm away
-2.414973	swarm control
-2.414973	swarm down
-2.238882	swarm is
-2.238882	swarm now	0.008927021
-2.404834	tac UNK
-2.407391	take control
-2.407391	take the
-2.407391	take us
-2.407391	take your
-2.40654	taken UNK
-2.40654	taken away
-2.40654	taken your
-2.40654	takes </s>
-2.230449	takes to
-2.40654	talk jimmy
-2.230449	talk to
-2.229597	talking about
-2.405688	tarsonis to
-2.405688	tarsonis youre
-2.011993	tell me
-2.409933	tell that
-2.409933	tell them
-2.409933	tell you
-2.229597	terran dominion
-2.40654	terrans do
-2.40654	terrans i
-2.40654	terrans will
-2.409933	than any
-2.233842	than i
-2.409933	than most
-2.409933	than that
-2.409933	than the
-2.409933	than yours
-1.797806	that </s>
-1.752048	that UNK	0.05486025
-2.451018	that aint
-2.451018	that armor
-2.451018	that because
-2.451018	that can
-2.451018	that difficult
-2.451018	that ever
-2.451018	that fear
-2.451018	that from
-2.451018	that hard
-2.053078	that i	-0.0005481117
-2.451018	that id
-2.451018	that im
-2.451018	that it
-2.451018	that leader
-2.451018	that man
-2.451018	that mengsk
-2.451018	that my
-2.451018	that order
-2.451018	that out
-2.451018	that pretty
-2.451018	that really
-2.451018	that right
-2.451018	that sometimes
-2.451018	that to
-2.451018	that up
-2.451018	that was
-2.149988	that we
-2.274927	that weve
-2.451018	that which
-2.149988	that will
-2.451018	that you
-2.451018	that youve
-2.451018	that zeratul
-2.409933	thats amons
-2.409933	thats going
-2.409933	thats just
-2.409933	thats right
-2.409933	thats the
-2.409933	thats what
-2.409933	thats why
-1.088602	the UNK	0.1076738
-2.242417	the ancient	0.0008373673
-2.367356	the ashes	-5.048467e-06
-2.543447	the billions
-2.543447	the biomass
-2.543447	the catch
-2.367356	the chrysalis
-2.367356	the commander
-2.543447	the confederate
-2.367356	the confederates	0
-2.367356	the devil	0
-1.999379	the dominion	0.00242996
-2.543447	the emitter
-2.543447	the emperor
-2.367356	the end
-2.543447	the fire
-2.242417	the first
-2.367356	the fleet
-2.543447	the good
-2.543447	the greater
-2.543447	the ground
-2.367356	the hell
-2.242417	the hive	0
-2.242417	the job
-2.543447	the last
-2.543447	the lawless
-2.543447	the leader
-2.543447	the lieutenant
-2.367356	the lives
-2.543447	the man
-2.543447	the moment
-2.145507	the most	0.0008423959
-2.543447	the name
-2.543447	the new
-2.543447	the old
-2.242417	the one
-2.367356	the only	0.0008523939
-2.543447	the orders
-2.367356	the others
-2.242417	the overmind
-2.367356	the pack	-5.048467e-06
-2.367356	the people
-2.543447	the petty
-2.543447	the planet
-2.543447	the pleasure
-2.242417	the power	-2.988009e-05
-2.242417	the primal	0.0008423433
-2.066326	the protoss	-1.491047e-05
-1.999379	the queen	0.0008457527
-2.367356	the sector
-2.543447	the sentiment
-1.844477	the swarm	0.0007863771
-2.367356	the terran	0
-2.543447	the terrans
-2.543447	the thing
-2.543447	the time
-2.543447	the universe
-2.543447	the wake
-2.242417	the way
-2.367356	the wounded
-2.543447	the xelnaga
-1.589205	the zerg	0.004042279
-1.868392	their UNK	0.0548404
-2.412461	their comm
-2.412461	their lies
-2.412461	their own
-2.412461	their swarm
-2.113107	them </s>
-2.414137	them a
-2.238046	them all
-2.414137	them alli
-2.414137	them away
-2.414137	them i
-2.414137	them must
-2.414137	them out
-2.414137	them the
-2.407391	then </s>
-2.407391	then find
-2.407391	then has
-2.407391	then jim
-2.014521	there </s>
-2.412461	there and
-2.412461	there are
-2.236369	there is	-0.0002386023
-2.412461	there matt
-2.412461	there may
-2.40824	theres a
-2.40824	theres blood
-2.40824	theres no
-2.40824	theres something
-2.40824	theres too
-1.933656	these UNK	0.03466644
-2.410777	these are
-2.410777	these primal
-2.410777	these zerg
-2.016197	they UNK
-2.414137	they aint
-2.414137	they come
-2.414137	they done
-2.414137	they give
-2.414137	they say
-2.113107	they will
-2.405688	theyll be
-2.405688	theyll kill
-2.409087	thing </s>
-2.409087	thing about
-2.409087	thing as
-2.409087	thing i
-2.409087	thing of
-2.409087	thing once
-2.415808	think he
-2.415808	think hes
-2.239717	think i
-2.415808	think id
-2.415808	think ill
-2.415808	think of
-2.415808	think shes
-2.114778	think that	0.0004407621
-2.114778	think you	0.001840516
-1.745075	this </s>
-1.631131	this UNK	0.06888464
-2.444045	this again
-2.444045	this aint
-2.444045	this arcturus
-2.444045	this biomass
-2.444045	this can
-2.267954	this coming
-2.444045	this dominion
-2.444045	this essence
-2.444045	this far
-2.444045	this feels
-1.966924	this is
-2.267954	this kerrigan	0.004166119
-2.444045	this must
-2.444045	this pack
-2.444045	this planet
-2.143015	this sector
-2.444045	this thing
-2.444045	this universe
-2.444045	this will
-2.444045	this world
-2.407391	those UNK
-2.407391	those shuttles
-2.407391	those who
-2.407391	those wounded
-2.40654	threat has
-2.230449	threat to
-2.405688	three shuttles
-2.405688	three through
-2.409087	through </s>
-2.409087	through UNK
-2.409087	through it
-2.409087	through past
-2.409087	through the
-2.409087	through them
-2.404834	til mengsk
-1.94035	time </s>
-2.417472	time UNK
-2.417472	time for
-2.417472	time i
-2.417472	time is
-2.417472	time off
-2.417472	time since
-2.019532	time to
-2.417472	time we
-2.230449	times </s>
-2.40654	times already
-2.212853	to </s>
-1.367755	to UNK	0.1028863
-2.513883	to always
-2.513883	to an
-2.513883	to ashes
-2.513883	to back
-1.860671	to be	0.005580623
-2.513883	to become
-2.513883	to char
-2.513883	to collect
-2.513883	to come
-2.212853	to destroy	0.000830726
-2.212853	to die
-2.212853	to do
-2.513883	to escape
-2.513883	to ever
-2.513883	to fenix
-2.513883	to fight
-2.513883	to find
-2.036762	to get	-2.964889e-05
-2.513883	to give
-2.212853	to go
-2.513883	to harvest
-2.513883	to hate
-2.212853	to have
-2.513883	to hear
-2.513883	to hell
-2.513883	to help
-2.513883	to jump
-2.513883	to kerrigan
-2.115943	to kill
-2.513883	to know
-2.337792	to korhal
-2.513883	to let
-2.513883	to live
-1.911823	to make	0.001670177
-2.115943	to me	0.01103812
-2.513883	to power
-2.337792	to realize
-2.513883	to reason
-2.513883	to return
-2.513883	to save
-2.513883	to say
-1.911823	to see	-4.865555e-05
-2.337792	to serve
-2.513883	to stop
-2.337792	to take
-2.337792	to talk	-5.048467e-06
-2.513883	to tarsonis
-2.337792	to tell	0.001678071
-1.969815	to the
-2.513883	to these
-2.513883	to this
-2.337792	to those
-2.513883	to understand
-2.513883	to what
-2.337792	to work
-1.860671	to you	0.01019522
-2.513883	to your
-2.40654	today </s>
-2.40654	today i
-2.40654	today you
-2.405688	together </s>
-2.405688	together well
-2.407391	too </s>
-2.407391	too UNK
-2.407391	too great
-2.407391	too many
-2.404834	top UNK
-2.405688	trust him
-2.405688	trust that
-2.40654	try abathur
-2.230449	try to
-2.405688	turn around
-2.405688	turn up
-2.40654	turns away
-2.40654	turns on
-2.40654	turns to
-2.2313	tychus </s>
-2.407391	tychus but
-2.407391	tychus findlay
-2.405688	uh a
-2.405688	uh the
-2.404834	under any
-2.40654	understand each
-2.40654	understand that
-2.40654	understand you
-2.405688	universe </s>
-2.405688	universe will
-2.40654	until his
-2.230449	until i
-2.238046	up </s>
-2.113107	up UNK
-2.414137	up after
-2.414137	up alien
-2.414137	up now
-2.238046	up the
-2.414137	up their
-2.414137	up with
-2.40654	upon UNK
-2.40654	upon to
-2.40654	upon us
-2.118099	us </s>
-2.419129	us UNK
-2.118099	us all
-2.419129	us and
-2.419129	us as
-2.419129	us here
-2.419129	us into
-2.419129	us know
-2.419129	us out
-2.419129	us return
-2.419129	us this
-2.419129	us time
-2.419129	us up
-2.419129	us working
-2.109747	valerian </s>
-2.410777	valerian UNK
-2.234686	valerian is	0.005243997
-2.410777	valerian mengsk
-2.410777	valerian your
-2.405688	vengeance UNK
-2.405688	vengeance shall
-2.40654	very good
-2.230449	very well
-2.405688	voice calling
-2.405688	voice is
-2.229597	waffles </s>
-2.405688	wait </s>
-2.405688	wait my
-2.404834	waitin on
-2.405688	waiting for
-2.405688	waiting on
-2.405688	wake of
-2.405688	wake up
-2.234686	want </s>
-2.410777	want me
-2.234686	want to
-2.109747	want you	0.0009830741
-2.40654	war are
-2.40654	war has
-2.40654	war is
-2.243865	was </s>
-1.875888	was UNK	-0.0001102595
-2.419956	was about
-2.419956	was called
-2.419956	was he
-2.419956	was in
-2.419956	was jim
-2.419956	was never
-2.419956	was really
-2.419956	was the
-2.419956	was then
-2.419956	was under
-2.419956	was you
-2.233842	way </s>
-2.409933	way admiral
-2.409933	way my
-2.233842	way out
-2.409933	way over
-1.892095	we UNK
-2.436163	we aint
-2.436163	we all
-2.436163	we always
-2.038223	we are
-2.436163	we battle
-2.436163	we be
-2.436163	we came
-2.260071	we can
-2.436163	we cant
-2.436163	we could
-2.436163	we do
-2.436163	we had
-1.892095	we have	0.003872494
-2.436163	we just
-2.436163	we made
-2.436163	we must
-2.260071	we need	0.00419232
-2.436163	we pulled
-2.436163	we sat
-2.436163	we should
-2.436163	we understand
-2.260071	we will
-2.117271	well </s>
-2.418301	well but
-2.418301	well do
-2.418301	well i
-2.418301	well it
-2.418301	well ive
-2.24221	well kill
-2.418301	well lead
-2.418301	well never
-2.418301	well now
-2.418301	well of
-2.418301	well see
-2.418301	well the
-2.418301	well you
-2.114778	were UNK
-2.239717	were all	0.003067774
-2.415808	were almost
-2.415808	were calling
-2.415808	were dead
-2.415808	were done
-2.415808	were going
-2.415808	were not
-2.415808	were still
-2.415808	were the
-2.415808	were waitin
-2.232996	weve UNK
-2.409087	weve all
-2.409087	weve been
-2.409087	weve seen
-2.409087	weve still
-2.25042	what </s>
-2.125481	what UNK
-2.426511	what are
-2.028571	what do	0.004843856
-2.25042	what have
-2.028571	what i	0.01308863
-2.426511	what if
-2.426511	what im
-2.25042	what it	0.0006143933
-2.426511	what they
-2.426511	what was
-2.25042	what you
-2.25042	what youre
-2.426511	what youve
-2.407391	whats goin
-2.407391	whats she
-2.407391	whats so
-2.407391	whats the
-2.407391	when their
-2.407391	when this
-2.2313	when you
-2.2313	where she
-2.407391	where you
-2.407391	where youre
-2.407391	which UNK
-2.2313	which you
-2.407391	which youve
-2.405688	while i
-2.405688	while we
-2.409933	who UNK
-2.409933	who called
-2.409933	who ever
-2.409933	who feel
-2.409933	who got
-2.409933	who let
-2.409933	who we
-2.409933	why UNK
-2.233842	why are	0.004800773
-2.409933	why attack
-2.409933	why have
-2.409933	why i
-2.409933	why they
-2.129529	will </s>
-1.953438	will UNK	0.007633924
-2.430559	will all
-2.129529	will be
-2.430559	will become
-2.430559	will burn
-2.430559	will deal
-2.430559	will do
-2.430559	will father
-2.430559	will give
-2.129529	will help	-1.502805e-05
-2.430559	will kill
-2.430559	will make
-2.430559	will need
-2.129529	will not	-0.0001295342
-2.430559	will return
-2.430559	will rule
-2.430559	will sacrifice
-2.430559	will seek
-2.430559	will stop
-2.419129	with all
-2.419129	with her
-2.419129	with him
-2.419129	with his
-2.419129	with me
-2.419129	with men
-2.419129	with that
-1.817069	with the	-0.0006742821
-2.243038	with their
-2.243038	with you	0.0127174
-2.405688	without a
-2.405688	without some
-2.404834	won </s>
-2.40654	wont forget
-2.40654	wont last
-2.40654	wont stand
-2.407391	work boys
-2.407391	work for
-2.407391	work general
-2.407391	work together
-2.405688	working for
-2.405688	working on
-2.405688	world vengeance
-2.405688	world weve
-2.40654	worlds UNK
-2.40654	worlds destroyed
-2.40654	worlds will
-2.40654	would allow
-2.40654	would let
-2.40654	would make
-2.230449	wounded </s>
-2.40654	wounded to
-2.230449	xelnaga </s>
-2.40654	xelnaga the
-2.405688	years </s>
-2.405688	years and
-2.233842	yes </s>
-2.233842	yes i	0.01307855
-2.409933	yes just
-2.409933	yes sir
-2.409933	yes yes
-1.461148	you </s>
-1.540329	you UNK	0.1070982
-2.540329	you a
-2.540329	you about
-2.364238	you aint
-2.364238	you all
-2.540329	you always
-2.540329	you an
-2.2393	you and
-2.14239	you are
-2.540329	you as
-2.540329	you back
-2.364238	you betrayed
-2.540329	you bitch
-2.364238	you boys	-1.007714e-05
-2.540329	you came
-2.14239	you can
-2.14239	you cant
-2.540329	you care
-2.540329	you close
-2.540329	you dead
-2.364238	you dehaka	0
-2.540329	you do
-2.540329	you done
-2.063208	you dont
-2.540329	you even
-2.540329	you figure
-2.364238	you get
-2.540329	you go
-2.540329	you goin
-2.14239	you got	-4.922459e-05
-1.996261	you have
-2.540329	you hear
-2.364238	you here
-2.540329	you if
-2.540329	you in
-2.540329	you into
-2.364238	you jim
-2.540329	you jimmy
-2.540329	you killed
-2.063208	you know
-2.364238	you live
-2.540329	you lose
-2.540329	you made
-2.364238	you may
-2.364238	you mean
-2.540329	you must
-2.364238	you need	0.00419232
-2.364238	you never
-2.364238	you on
-2.364238	you or	0.001636973
-2.14239	you out
-2.540329	you plan
-2.540329	you prepared
-2.540329	you protoss
-2.540329	you realize
-2.540329	you really
-2.364238	you right	0.0007734776
-2.540329	you sacrificed
-2.364238	you said
-2.364238	you see
-2.540329	you shouldnt
-2.540329	you sometimes
-2.364238	you son	-1.508603e-05
-2.540329	you stand
-2.540329	you still
-2.540329	you talking
-2.540329	you these
-2.14239	you think
-2.540329	you time
-1.996261	you to
-2.540329	you too
-2.540329	you try
-2.540329	you tychus
-2.540329	you understand
-2.364238	you valerian	0.0008190644
-2.14239	you want	-1.991936e-05
-2.063208	you were
-2.540329	you who
-2.540329	you will
-2.540329	you would
-2.540329	you your
-2.410777	youll call
-2.410777	youll carry
-2.410777	youll do
-2.410777	youll just
-2.410777	youll keep
-2.410777	youll regret
-2.410777	youll see
-2.410777	youll soon
-1.446382	your UNK	0.09288251
-2.446382	your chance
-2.446382	your control
-2.446382	your day
-2.446382	your essence
-2.446382	your every
-2.446382	your father
-2.145352	your forces
-2.446382	your friend
-2.446382	your god
-2.446382	your great
-2.446382	your humanity
-2.270291	your mad
-2.446382	your most
-2.446382	your move
-2.446382	your new
-2.446382	your nice
-2.145352	your orders
-2.270291	your own	0.0008323188
-2.446382	your past
-2.270291	your people
-2.446382	your prophecies
-2.446382	your rule
-2.446382	your self
-2.270291	your swarm
-2.446382	your will
-1.943659	youre UNK
-2.420781	youre about
-2.420781	youre from
-2.244689	youre gonna
-2.420781	youre in
-2.02284	youre not
-2.119751	youre right
-2.420781	youre satisfied
-2.420781	youre talking
-2.420781	youre the
-2.405688	yours </s>
-2.405688	yours but
-2.405688	yourself </s>
-2.405688	yourself be
-2.4133	youve become
-2.11227	youve been
-2.4133	youve come
-2.4133	youve done
-2.237209	youve got
-2.4133	youve killed
-2.4133	youve ruined
-2.4133	youve taken
-2.229597	zagara defend	0.0008523939
-2.10721	zeratul </s>
-2.40824	zeratul UNK
-2.40824	zeratul is
-1.772485	zerg </s>
-2.124667	zerg UNK
-2.425697	zerg again
-2.425697	zerg are
-2.425697	zerg first
-2.425697	zerg general
-2.425697	zerg in
-2.425697	zerg now
-2.249606	zerg on
-2.425697	zerg pulled
-2.425697	zerg say
-2.425697	zerg swarm
-2.425697	zerg that
-2.425697	zerg threat
-2.425697	zerg will
-2.425697	zerg you
-2.407391	zerus </s>
-2.407391	zerus and
-2.407391	zerus is
-2.407391	zerus may

\3-grams:
-1.757396	<s> UNK </s>
-1.678215	<s> UNK UNK
-2.155336	<s> UNK of
-2.280275	<s> UNK the
-2.155336	<s> UNK up
-1.424313	UNK UNK </s>
-1.639913	UNK UNK UNK
-2.30892	UNK UNK a
-2.30892	UNK UNK against
-2.00789	UNK UNK and
-2.30892	UNK UNK for
-2.30892	UNK UNK in
-1.882951	UNK UNK of
-2.30892	UNK UNK on
-1.786041	UNK UNK the
-1.940943	UNK UNK to
-2.30892	UNK UNK you
-1.884876	a UNK </s>
-1.826884	a UNK UNK
-2.031004	a UNK of
-2.252853	a UNK that
-2.127914	a UNK to
-2.01368	an UNK </s>
-1.771669	and UNK </s>
-2.123852	and UNK UNK
-2.24879	and UNK but
-2.232149	are UNK UNK
-2.11059	be UNK </s>
-2.229597	damn UNK </s>
-2.230449	every UNK UNK
-2.2313	first UNK </s>
-2.10551	good UNK </s>
-2.230449	here UNK </s>
-2.011147	his UNK UNK
-2.24221	i UNK </s>
-2.24221	i UNK this
-2.020361	i UNK you
-2.230449	into UNK </s>
-1.934498	is UNK </s>
-2.108903	it UNK </s>
-2.106361	its UNK </s>
-2.230449	most UNK UNK
-1.937016	my UNK </s>
-2.016197	my UNK UNK
-2.017033	of UNK </s>
-2.017033	of UNK UNK
-2.234686	our UNK UNK
-2.234686	our UNK is
-2.230449	own UNK </s>
-2.230449	something UNK in
-2.11059	that UNK </s>
-1.750508	the UNK </s>
-1.636565	the UNK UNK
-2.273387	the UNK are
-2.273387	the UNK is
-1.709116	the UNK of
-2.148448	the UNK to
-2.108057	their UNK </s>
-2.10721	these UNK UNK
-2.238046	this UNK </s>
-2.238046	this UNK is
-2.238046	this UNK to
-1.94939	to UNK </s>
-2.25042	to UNK UNK
-2.25042	to UNK aside
-2.125481	to UNK the
-2.25042	to UNK your
-2.232996	was UNK about
-2.232149	will UNK the
-2.118926	you UNK </s>
-2.118926	you UNK UNK
-2.243865	you UNK think
-2.243865	you UNK to
-2.243865	you UNK us
-1.875888	your UNK </s>
-2.118926	your UNK UNK
-2.01368	UNK a UNK
-2.235528	UNK a new
-2.229597	am a UNK
-2.106361	got a UNK
-2.229597	held a UNK
-2.229597	is a UNK
-2.10551	its a UNK
-2.229597	made a deal
-2.230449	of a bitch
-2.229597	its about time
-2.229597	UNK again </s>
-2.230449	UNK against the
-2.2313	for all </s>
-2.229597	were all UNK
-2.246334	i am </s>
-2.121396	i am UNK
-2.246334	i am a
-2.246334	i am done
-2.246334	i am here
-2.121396	i am the
-2.230449	the ancient one
-2.235528	<s> and that
-2.235528	<s> and you
-1.577328	UNK and UNK
-2.246334	UNK and he
-2.229597	once and for
-2.229597	peace and UNK
-2.229597	or anyone </s>
-2.229597	<s> are you
-2.230449	UNK are UNK
-2.229597	why are you
-2.229597	the ashes of
-2.2313	UNK at the
-2.234686	to be UNK
-2.232149	ive been UNK
-2.232149	ive been waiting
-1.931966	of blades </s>
-2.229597	you boys UNK
-2.229597	old buddy </s>
-2.238046	<s> but i
-2.016197	<s> but you
-2.109747	UNK but its
-2.2313	UNK by the
-2.229597	not by you
-2.106361	i can hardly
-2.229597	the confederates or
-2.229597	of course </s>
-2.230449	<s> damn UNK
-2.230449	is dead </s>
-2.230449	a deal with
-2.229597	zagara defend the
-2.229597	you dehaka </s>
-2.230449	to destroy the
-2.229597	the devil jimmy
-2.10551	<s> did you
-2.229597	earth directorate </s>
-2.106361	what do you
-2.108057	the dominion </s>
-2.229597	is done UNK
-2.230449	UNK dont you
-2.236369	i dont know
-2.236369	i dont think
-2.229597	on each other
-2.229597	our first UNK
-2.229597	and for all
-2.232149	UNK from the
-2.108057	<s> general </s>
-2.232149	to get you
-2.106361	im going to
-2.2313	you got us
-2.230449	i had to
-2.230449	can hardly believe
-2.229597	dont have to
-2.108057	we have to
-2.230449	and he was
-2.230449	<s> hell its
-2.230449	will help me
-2.229597	done here </s>
-2.229597	UNK his UNK
-2.230449	the hive cluster
-2.011147	<s> how many
-1.561549	<s> i UNK
-1.862579	<s> i am
-2.288547	<s> i can
-1.92057	<s> i dont
-2.288547	<s> i guess
-2.288547	<s> i had
-2.163609	<s> i have
-2.288547	<s> i hear
-1.92057	<s> i know
-2.288547	<s> i love
-2.163609	<s> i made
-2.163609	<s> i need
-2.066699	<s> i think
-2.288547	<s> i want
-2.163609	<s> i was
-1.987517	<s> i will
-2.2313	but i dont
-2.229597	for i am
-2.2313	that i would
-2.2313	what i am
-2.229597	yes i am
-2.232996	<s> if you
-1.937852	<s> im UNK
-2.238882	<s> im going
-2.239717	UNK in me
-1.938686	UNK in the
-2.239717	UNK in this
-2.11059	UNK is UNK
-2.235528	UNK is over
-2.229597	there is no
-2.229597	valerian is UNK
-2.232149	<s> it UNK
-2.232149	<s> it is
-2.2313	make it </s>
-2.2313	make it UNK
-2.229597	what it takes
-2.237209	<s> its UNK
-2.11227	<s> its a
-2.237209	<s> its time
-2.230449	but its UNK
-2.229597	hell its about
-2.236369	<s> ive UNK
-2.111431	<s> ive been
-2.233842	<s> jim </s>
-2.229597	devil jimmy </s>
-2.229597	this kerrigan </s>
-2.229597	UNK killers </s>
-2.234686	i know that
-2.229597	<s> looks over
-2.230449	i made a
-2.233842	to make it
-2.106361	how many more
-2.109747	UNK me </s>
-2.234686	UNK me to
-2.230449	hear me </s>
-2.106361	to me </s>
-2.229597	dominion military UNK
-2.230449	many more UNK
-2.2313	the most UNK
-2.230449	on my hands
-2.2313	i need you
-2.229597	we need to
-2.229597	you need to
-2.229597	<s> not by
-2.10551	will not be
-2.10551	right now </s>
-2.229597	swarm now </s>
-1.6958	UNK of UNK
-2.260071	UNK of my
-1.892095	UNK of the
-2.260071	UNK of your
-2.2313	one of the
-2.229597	power of zerus
-1.865019	queen of blades
-2.229597	son of a
-2.232149	UNK on UNK
-2.230449	ancient one </s>
-2.229597	the only one
-2.229597	confederates or the
-2.229597	protoss or anyone
-2.229597	you or the
-2.230449	each other </s>
-2.2313	<s> our UNK
-2.230449	get out of
-2.230449	is over </s>
-2.229597	looks over at
-2.229597	your own UNK
-2.229597	the pack leaders
-2.230449	the power of
-2.10551	the primal zerg
-2.232149	the protoss or
-1.931966	the queen of
-2.229597	you right now
-2.106361	<s> sarah </s>
-2.233842	to see this
-2.229597	all so UNK
-2.229597	you son of
-2.11059	the swarm </s>
-2.235528	the swarm UNK
-2.235528	the swarm now
-2.230449	it takes to
-2.229597	to talk to
-2.230449	<s> tell me
-2.229597	to tell me
-2.229597	the terran dominion
-2.10551	think that i
-2.120574	<s> the UNK
-2.245513	<s> the protoss
-2.120574	<s> the zerg
-1.728354	UNK the UNK
-2.251233	UNK the zerg
-2.230449	about the zerg
-2.230449	against the swarm
-2.232149	all the way
-2.230449	am the queen
-2.2313	and the overmind
-2.230449	at the UNK
-2.230449	defend the hive
-2.230449	destroy the UNK
-2.11059	for the UNK
-2.229597	have the UNK
-1.938686	in the UNK
-2.239717	in the end
-2.017033	of the UNK
-2.238882	of the primal
-2.238882	of the swarm
-2.238882	of the zerg
-2.10721	on the UNK
-2.2313	or the confederates
-2.2313	or the protoss
-2.233842	with the devil
-2.229597	got them all
-2.230449	<s> there is
-2.229597	out there </s>
-2.232149	<s> these UNK
-2.232149	i think i
-1.867552	UNK this UNK
-2.229597	all this </s>
-2.230449	of this </s>
-2.230449	on this UNK
-2.229597	about time </s>
-2.256076	UNK to </s>
-1.830107	UNK to UNK
-2.131137	UNK to be
-2.256076	UNK to the
-2.256076	UNK to you
-2.232996	going to korhal
-2.232996	going to make
-2.234686	have to die
-2.233842	need to see
-2.229597	seek to UNK
-2.232996	UNK up UNK
-2.232996	UNK up the
-2.229597	you valerian </s>
-2.10551	i want you
-2.2313	you want </s>
-2.108903	i was UNK
-2.24221	<s> we UNK
-2.24221	<s> we are
-2.020361	<s> we have
-2.235528	<s> well kill
-2.234686	<s> were all
-2.238046	<s> what UNK
-2.113107	<s> what do
-2.238046	<s> what i
-2.233842	i will not
-2.011993	UNK with the
-2.10551	deal with the
-1.963	<s> you UNK
-2.26403	<s> you are
-2.139091	<s> you cant
-2.139091	<s> you dont
-2.26403	<s> you got
-2.26403	<s> you have
-2.139091	<s> you know
-2.26403	<s> you want
-2.24138	UNK you all
-2.24138	UNK you were
-2.234686	are you UNK
-2.229597	as you UNK
-2.2313	but you dont
-2.230449	by you or
-2.230449	kill you </s>
-2.230449	let you live
-2.229597	of you </s>
-2.229597	on you </s>
-2.230449	think you have
-1.933656	to you </s>
-2.10551	want you to
-2.229597	with you </s>
-2.2313	UNK your UNK
-2.106361	of your UNK
-2.108903	<s> youre not
-2.233842	<s> youre right
-2.229597	<s> zagara defend
-2.229597	<s> zeratul </s>
-2.2313	primal zerg </s>
-2.117271	the zerg </s>
-2.117271	the zerg UNK

\end\
