
\data\
ngram 1=508

\1-grams:
-0.9584314	</s>
-99	<s>
-3.76602	<unk>
-0.8938102	UNK
-1.959786	a
-3.163906	abathur
-2.368026	about
-2.987815	admiral
-2.987815	after
-2.862876	again
-3.066996	against
-3.288845	age
-3.288845	ah
-2.686785	aint
-3.288845	alien
-3.066996	alive
-2.197765	all
-3.464936	alli
-3.288845	allow
-3.163906	almost
-2.987815	already
-2.765966	always
-2.404239	am
-3.288845	amon
-3.288845	among
-3.288845	amons
-2.724574	an
-2.920868	ancient
-1.873872	and
-3.066996	another
-3.066996	any
-3.288845	anyone
-3.163906	anything
-2.765966	arcturus
-2.303568	are
-3.288845	armada
-3.288845	armor
-3.066996	around
-3.066996	artanis
-2.510694	as
-3.163906	ashes
-3.288845	aside
-2.765966	at
-3.288845	attack
-3.288845	awaiting
-2.765966	away
-2.724574	back
-3.288845	battle
-2.234488	be
-2.920868	because
-3.163906	become
-2.510694	been
-2.862876	before
-3.288845	being
-3.163906	believe
-3.464936	betray
-3.288845	betrayed
-3.288845	beyond
-3.464936	billion
-3.288845	billions
-3.163906	biomass
-2.987815	bitch
-2.920868	blades
-3.163906	blood
-3.464936	bout
-3.066996	boys
-3.288845	breakfast
-3.288845	bring
-3.288845	buddy
-3.066996	burn
-2.260816	but
-2.619838	by
-3.288845	call
-3.066996	called
-3.288845	calling
-3.163906	came
-2.561846	can
-2.920868	cant
-3.288845	care
-3.163906	carry
-3.288845	catch
-3.288845	cause
-3.066996	chance
-3.066996	char
-3.288845	choices
-3.288845	chrysalis
-3.288845	clear
-3.288845	close
-3.288845	cluster
-3.288845	collect
-2.686785	come
-2.987815	coming
-3.464936	comm
-2.987815	commander
-3.464936	confederate
-3.288845	confederates
-3.163906	control
-2.920868	could
-3.288845	count
-3.288845	course
-2.987815	damn
-3.288845	dangerous
-3.163906	darlin
-3.288845	day
-2.765966	dead
-3.066996	deal
-3.163906	defend
-3.288845	dehaka
-2.862876	destroy
-3.163906	destroyed
-3.288845	devil
-3.163906	did
-3.066996	die
-3.288845	died
-3.288845	dies
-3.288845	difficult
-3.163906	directorate
-2.368026	do
-3.288845	doing
-2.487213	dominion
-2.686785	done
-2.350993	dont
-2.811724	down
-3.288845	dream
-3.288845	dreamed
-3.163906	duke
-3.163906	duran
-3.163906	each
-3.163906	earth
-3.288845	edmund
-3.464936	em
-3.288845	emitter
-3.066996	emperor
-3.163906	end
-3.288845	enemies
-2.987815	enough
-3.464936	er
-3.464936	era
-3.288845	escape
-3.288845	essence
-2.920868	even
-2.811724	ever
-3.066996	every
-3.288845	everyone
-3.066996	everything
-3.288845	expected
-3.288845	fair
-3.163906	far
-3.464936	fast
-2.920868	father
-3.163906	fear
-3.464936	fed
-3.163906	feel
-3.288845	feels
-3.066996	fenix
-3.288845	fight
-3.288845	figure
-3.163906	find
-3.288845	findlay
-3.163906	fire
-2.811724	first
-3.163906	fleet
-2.174902	for
-3.163906	forces
-3.288845	forget
-3.464936	free
-3.288845	freedom
-3.288845	friend
-2.589875	from
-2.652023	general
-2.686785	get
-2.920868	give
-2.920868	go
-3.288845	god
-3.288845	goin
-2.811724	going
-2.920868	gonna
-2.619838	good
-2.589875	got
-3.288845	great
-3.163906	greater
-3.066996	ground
-3.288845	guess
-2.862876	had
-3.464936	hand
-3.288845	hands
-3.464936	hard
-3.163906	hardly
-3.288845	harvest
-2.920868	has
-3.163906	hate
-3.288845	hatred
-2.209664	have
-3.288845	having
-2.487213	he
-2.862876	hear
-2.987815	heard
-3.288845	held
-2.765966	hell
-3.288845	hello
-2.920868	help
-3.288845	her
-2.288845	here
-3.066996	hes
-3.288845	high
-2.765966	him
-2.765966	his
-3.163906	hive
-2.686785	how
-3.464936	human
-3.163906	humanity
-1.607604	i
-3.464936	ice
-3.163906	id
-2.652023	if
-3.464936	iff
-2.862876	ill
-2.535517	im
-2.209664	in
-3.288845	incredibly
-3.288845	individuals
-2.765966	into
-2.025604	is
-2.142717	it
-2.464936	its
-3.464936	iv
-2.535517	ive
-3.163906	izsha
-2.368026	jim
-2.862876	jimmy
-3.066996	job
-3.288845	jukebox
-3.288845	jump
-2.487213	just
-3.288845	keep
-2.619838	kerrigan
-2.686785	kill
-3.066996	killed
-3.464936	killer
-3.288845	killers
-3.288845	knew
-2.404239	know
-2.920868	korhal
-2.987815	last
-3.288845	lawless
-3.464936	lead
-3.163906	leader
-3.288845	leaders
-3.288845	leave
-3.464936	led
-3.288845	left
-3.464936	less
-2.765966	let
-3.288845	lets
-3.288845	lies
-2.920868	lieutenant
-3.288845	life
-2.561846	like
-3.066996	little
-3.066996	live
-2.987815	lives
-3.288845	long
-3.464936	look
-3.288845	looking
-3.288845	looks
-3.464936	lose
-3.163906	lot
-3.288845	love
-3.288845	mad
-2.987815	made
-3.163906	magistrate
-2.686785	make
-2.811724	man
-2.987815	many
-3.288845	mar
-3.163906	matt
-2.987815	may
-2.122514	me
-3.288845	mean
-3.464936	men
-2.686785	mengsk
-3.288845	military
-3.464936	mind
-3.066996	mine
-3.288845	moment
-3.288845	monster
-2.652023	more
-2.920868	most
-3.288845	move
-3.288845	mr
-2.765966	must
-2.274605	my
-3.288845	name
-2.686785	need
-2.686785	never
-2.920868	new
-3.163906	nice
-3.288845	night
-2.561846	no
-2.385755	not
-2.987815	nothing
-2.288845	now
-1.846888	of
-3.163906	off
-3.288845	oh
-2.987815	old
-2.274605	on
-2.920868	once
-2.487213	one
-3.288845	ones
-3.163906	only
-2.652023	or
-3.288845	order
-2.987815	orders
-3.163906	other
-3.288845	others
-2.535517	our
-3.464936	ours
-2.385755	out
-2.765966	over
-3.163906	overmind
-3.288845	owe
-2.920868	own
-3.163906	pack
-3.163906	past
-2.920868	peace
-2.920868	people
-3.288845	perhaps
-3.288845	petty
-3.288845	piece
-3.288845	place
-3.288845	plan
-3.163906	planet
-3.288845	pleasure
-2.765966	power
-3.288845	powerful
-3.464936	prep
-3.066996	prepared
-3.464936	present
-3.288845	pretty
-2.987815	primal
-3.288845	prophecies
-2.811724	protoss
-3.288845	pulled
-2.862876	queen
-3.288845	quillgor
-3.288845	quit
-2.920868	raynor
-3.163906	raynors
-3.288845	ready
-3.163906	realize
-2.987815	really
-3.288845	reason
-3.288845	regret
-3.163906	remember
-3.288845	removed
-3.288845	represent
-3.066996	return
-3.163906	revenge
-2.561846	right
-3.163906	ruined
-3.066996	rule
-3.288845	run
-3.464936	sacrifice
-3.288845	sacrificed
-3.163906	said
-3.288845	same
-3.288845	sara
-2.765966	sarah
-3.464936	sat
-3.288845	satisfied
-3.288845	save
-3.163906	saved
-3.163906	say
-2.920868	sector
-2.510694	see
-3.163906	seek
-3.163906	seen
-3.464936	self
-3.288845	send
-3.464936	sent
-3.288845	sentiment
-3.288845	serve
-3.163906	shall
-3.288845	shattered
-2.987815	she
-3.288845	shes
-3.288845	shining
-3.163906	should
-3.288845	shouldnt
-3.288845	shuttles
-3.464936	side
-3.288845	since
-3.163906	sir
-2.619838	so
-3.066996	some
-2.765966	something
-3.288845	sometimes
-2.987815	son
-3.066996	soon
-2.862876	stand
-3.163906	still
-3.288845	stop
-3.288845	storms
-3.288845	strong
-3.288845	suit
-3.288845	sure
-2.619838	swarm
-3.464936	tac
-3.066996	take
-3.163906	taken
-3.163906	takes
-3.163906	talk
-3.288845	talking
-3.288845	tarsonis
-2.862876	tell
-3.288845	terran
-3.163906	terrans
-2.862876	than
-1.995114	that
-2.862876	thats
-1.480409	the
-2.724574	their
-2.652023	them
-3.066996	then
-2.724574	there
-2.987815	theres
-2.811724	these
-2.652023	they
-3.288845	theyll
-2.920868	thing
-2.589875	think
-2.066996	this
-3.066996	those
-3.163906	threat
-3.288845	three
-2.920868	through
-3.464936	til
-2.535517	time
-3.163906	times
-1.598649	to
-3.163906	today
-3.288845	together
-3.066996	too
-3.464936	top
-3.288845	trust
-3.163906	try
-3.288845	turn
-3.163906	turns
-3.066996	tychus
-3.288845	uh
-3.464936	under
-3.163906	understand
-3.288845	universe
-3.163906	until
-2.652023	up
-3.163906	upon
-2.487213	us
-2.811724	valerian
-3.288845	vengeance
-3.163906	very
-3.288845	voice
-3.288845	waffles
-3.288845	wait
-3.464936	waitin
-3.288845	waiting
-3.288845	wake
-2.811724	want
-3.163906	war
-2.464936	was
-2.862876	way
-2.163906	we
-2.510694	well
-2.589875	were
-2.920868	weve
-2.318808	what
-3.066996	whats
-3.066996	when
-3.066996	where
-3.066996	which
-3.288845	while
-2.862876	who
-2.862876	why
-2.247452	will
-2.487213	with
-3.288845	without
-3.464936	won
-3.163906	wont
-3.066996	work
-3.288845	working
-3.288845	world
-3.163906	worlds
-3.163906	would
-3.163906	wounded
-3.163906	xelnaga
-3.288845	years
-2.862876	yes
-1.491809	you
-2.811724	youll
-2.041691	your
-2.443747	youre
-3.288845	yours
-3.288845	yourself
-2.686785	youve
-3.288845	zagara
-2.987815	zeratul
-2.334603	zerg
-3.066996	zerus

\end\
